digraph Tree {
node [shape=box, fontname="helvetica"] ;
edge [fontname="helvetica"] ;
0 [label="education_of_employee_High School <= 0.5\ngini = 0.444\nsamples = 20357\nvalue = [6757, 13600]"] ;
1 [label="has_job_experience <= 0.5\ngini = 0.404\nsamples = 17590\nvalue = [4937, 12653]"] ;
0 -> 1 [labeldistance=2.5, labelangle=45, headlabel="True"] ;
2 [label="unit_of_wage_Hour <= 0.5\ngini = 0.481\nsamples = 7373\nvalue = [2971, 4402]"] ;
1 -> 2 ;
3 [label="continent_Europe <= 0.5\ngini = 0.463\nsamples = 6467\nvalue = [2357, 4110]"] ;
2 -> 3 ;
4 [label="region_of_employment_Midwest <= 0.5\ngini = 0.481\nsamples = 5473\nvalue = [2209, 3264]"] ;
3 -> 4 ;
5 [label="region_of_employment_South <= 0.5\ngini = 0.494\nsamples = 4324\nvalue = [1933, 2391]"] ;
4 -> 5 ;
6 [label="education_of_employee_Bachelor's <= 0.5\ngini = 0.5\nsamples = 2834\nvalue = [1441, 1393]"] ;
5 -> 6 ;
7 [label="full_time_position <= 0.5\ngini = 0.486\nsamples = 1418\nvalue = [591, 827]"] ;
6 -> 7 ;
8 [label="requires_job_training <= 0.5\ngini = 0.437\nsamples = 332\nvalue = [107, 225]"] ;
7 -> 8 ;
9 [label="hourly_wages <= 67.466\ngini = 0.429\nsamples = 327\nvalue = [102, 225]"] ;
8 -> 9 ;
10 [label="no_of_employees <= 1734.5\ngini = 0.405\nsamples = 248\nvalue = [70, 178]"] ;
9 -> 10 ;
11 [label="(...)"] ;
10 -> 11 ;
54 [label="(...)"] ;
10 -> 54 ;
153 [label="yrs_since_estab <= 125.0\ngini = 0.482\nsamples = 79\nvalue = [32, 47]"] ;
9 -> 153 ;
154 [label="(...)"] ;
153 -> 154 ;
211 [label="(...)"] ;
153 -> 211 ;
212 [label="gini = 0.0\nsamples = 5\nvalue = [5, 0]"] ;
8 -> 212 ;
213 [label="education_of_employee_Doctorate <= 0.5\ngini = 0.494\nsamples = 1086\nvalue = [484, 602]"] ;
7 -> 213 ;
214 [label="hourly_wages <= 28.032\ngini = 0.499\nsamples = 867\nvalue = [419, 448]"] ;
213 -> 214 ;
215 [label="yrs_since_estab <= 52.0\ngini = 0.491\nsamples = 309\nvalue = [175, 134]"] ;
214 -> 215 ;
216 [label="(...)"] ;
215 -> 216 ;
379 [label="(...)"] ;
215 -> 379 ;
418 [label="region_of_employment_Northeast <= 0.5\ngini = 0.492\nsamples = 558\nvalue = [244, 314]"] ;
214 -> 418 ;
419 [label="(...)"] ;
418 -> 419 ;
610 [label="(...)"] ;
418 -> 610 ;
773 [label="yrs_since_estab <= 11.5\ngini = 0.417\nsamples = 219\nvalue = [65, 154]"] ;
213 -> 773 ;
774 [label="no_of_employees <= 421.0\ngini = 0.497\nsamples = 56\nvalue = [26, 30]"] ;
773 -> 774 ;
775 [label="(...)"] ;
774 -> 775 ;
780 [label="(...)"] ;
774 -> 780 ;
809 [label="yrs_since_estab <= 164.0\ngini = 0.364\nsamples = 163\nvalue = [39, 124]"] ;
773 -> 809 ;
810 [label="(...)"] ;
809 -> 810 ;
887 [label="(...)"] ;
809 -> 887 ;
892 [label="full_time_position <= 0.5\ngini = 0.48\nsamples = 1416\nvalue = [850, 566]"] ;
6 -> 892 ;
893 [label="gini = 0.0\nsamples = 116\nvalue = [116, 0]"] ;
892 -> 893 ;
894 [label="yrs_since_estab <= 15.5\ngini = 0.492\nsamples = 1300\nvalue = [734, 566]"] ;
892 -> 894 ;
895 [label="hourly_wages <= 1.464\ngini = 0.499\nsamples = 463\nvalue = [239, 224]"] ;
894 -> 895 ;
896 [label="gini = 0.0\nsamples = 5\nvalue = [5, 0]"] ;
895 -> 896 ;
897 [label="no_of_employees <= 20745.0\ngini = 0.5\nsamples = 458\nvalue = [234, 224]"] ;
895 -> 897 ;
898 [label="(...)"] ;
897 -> 898 ;
1161 [label="(...)"] ;
897 -> 1161 ;
1168 [label="hourly_wages <= 89.802\ngini = 0.483\nsamples = 837\nvalue = [495, 342]"] ;
894 -> 1168 ;
1169 [label="hourly_wages <= 18.574\ngini = 0.48\nsamples = 800\nvalue = [480, 320]"] ;
1168 -> 1169 ;
1170 [label="(...)"] ;
1169 -> 1170 ;
1257 [label="(...)"] ;
1169 -> 1257 ;
1662 [label="hourly_wages <= 537.896\ngini = 0.482\nsamples = 37\nvalue = [15, 22]"] ;
1168 -> 1662 ;
1663 [label="(...)"] ;
1662 -> 1663 ;
1682 [label="(...)"] ;
1662 -> 1682 ;
1689 [label="requires_job_training <= 0.5\ngini = 0.442\nsamples = 1490\nvalue = [492, 998]"] ;
5 -> 1689 ;
1690 [label="full_time_position <= 0.5\ngini = 0.462\nsamples = 1145\nvalue = [414, 731]"] ;
1689 -> 1690 ;
1691 [label="no_of_employees <= 13969.0\ngini = 0.391\nsamples = 322\nvalue = [86, 236]"] ;
1690 -> 1691 ;
1692 [label="continent_North America <= 0.5\ngini = 0.373\nsamples = 306\nvalue = [76, 230]"] ;
1691 -> 1692 ;
1693 [label="no_of_employees <= 76.0\ngini = 0.335\nsamples = 244\nvalue = [52, 192]"] ;
1692 -> 1693 ;
1694 [label="(...)"] ;
1693 -> 1694 ;
1695 [label="(...)"] ;
1693 -> 1695 ;
1838 [label="no_of_employees <= 2266.5\ngini = 0.475\nsamples = 62\nvalue = [24, 38]"] ;
1692 -> 1838 ;
1839 [label="(...)"] ;
1838 -> 1839 ;
1860 [label="(...)"] ;
1838 -> 1860 ;
1877 [label="yrs_since_estab <= 7.0\ngini = 0.469\nsamples = 16\nvalue = [10, 6]"] ;
1691 -> 1877 ;
1878 [label="gini = 0.0\nsamples = 2\nvalue = [0, 2]"] ;
1877 -> 1878 ;
1879 [label="yrs_since_estab <= 108.0\ngini = 0.408\nsamples = 14\nvalue = [10, 4]"] ;
1877 -> 1879 ;
1880 [label="(...)"] ;
1879 -> 1880 ;
1885 [label="(...)"] ;
1879 -> 1885 ;
1886 [label="no_of_employees <= 3445.5\ngini = 0.479\nsamples = 823\nvalue = [328, 495]"] ;
1690 -> 1886 ;
1887 [label="education_of_employee_Doctorate <= 0.5\ngini = 0.489\nsamples = 660\nvalue = [281, 379]"] ;
1886 -> 1887 ;
1888 [label="yrs_since_estab <= 6.5\ngini = 0.493\nsamples = 622\nvalue = [273, 349]"] ;
1887 -> 1888 ;
1889 [label="(...)"] ;
1888 -> 1889 ;
1936 [label="(...)"] ;
1888 -> 1936 ;
2299 [label="no_of_employees <= 1598.0\ngini = 0.332\nsamples = 38\nvalue = [8, 30]"] ;
1887 -> 2299 ;
2300 [label="(...)"] ;
2299 -> 2300 ;
2303 [label="(...)"] ;
2299 -> 2303 ;
2312 [label="continent_North America <= 0.5\ngini = 0.41\nsamples = 163\nvalue = [47, 116]"] ;
1886 -> 2312 ;
2313 [label="yrs_since_estab <= 12.5\ngini = 0.377\nsamples = 139\nvalue = [35, 104]"] ;
2312 -> 2313 ;
2314 [label="(...)"] ;
2313 -> 2314 ;
2337 [label="(...)"] ;
2313 -> 2337 ;
2394 [label="no_of_employees <= 5259.5\ngini = 0.5\nsamples = 24\nvalue = [12, 12]"] ;
2312 -> 2394 ;
2395 [label="(...)"] ;
2394 -> 2395 ;
2408 [label="(...)"] ;
2394 -> 2408 ;
2409 [label="full_time_position <= 0.5\ngini = 0.35\nsamples = 345\nvalue = [78, 267]"] ;
1689 -> 2409 ;
2410 [label="gini = 0.0\nsamples = 5\nvalue = [5, 0]"] ;
2409 -> 2410 ;
2411 [label="education_of_employee_Doctorate <= 0.5\ngini = 0.337\nsamples = 340\nvalue = [73, 267]"] ;
2409 -> 2411 ;
2412 [label="hourly_wages <= 20.95\ngini = 0.364\nsamples = 288\nvalue = [69, 219]"] ;
2411 -> 2412 ;
2413 [label="yrs_since_estab <= 17.5\ngini = 0.473\nsamples = 39\nvalue = [15, 24]"] ;
2412 -> 2413 ;
2414 [label="(...)"] ;
2413 -> 2414 ;
2427 [label="(...)"] ;
2413 -> 2427 ;
2440 [label="yrs_since_estab <= 10.5\ngini = 0.34\nsamples = 249\nvalue = [54, 195]"] ;
2412 -> 2440 ;
2441 [label="(...)"] ;
2440 -> 2441 ;
2462 [label="(...)"] ;
2440 -> 2462 ;
2563 [label="no_of_employees <= 79.0\ngini = 0.142\nsamples = 52\nvalue = [4, 48]"] ;
2411 -> 2563 ;
2564 [label="gini = 0.0\nsamples = 1\nvalue = [1, 0]"] ;
2563 -> 2564 ;
2565 [label="hourly_wages <= 41.586\ngini = 0.111\nsamples = 51\nvalue = [3, 48]"] ;
2563 -> 2565 ;
2566 [label="(...)"] ;
2565 -> 2566 ;
2567 [label="(...)"] ;
2565 -> 2567 ;
2578 [label="education_of_employee_Bachelor's <= 0.5\ngini = 0.365\nsamples = 1149\nvalue = [276, 873]"] ;
4 -> 2578 ;
2579 [label="no_of_employees <= 47949.0\ngini = 0.33\nsamples = 743\nvalue = [155, 588]"] ;
2578 -> 2579 ;
2580 [label="hourly_wages <= 2.114\ngini = 0.322\nsamples = 730\nvalue = [147, 583]"] ;
2579 -> 2580 ;
2581 [label="gini = 0.0\nsamples = 3\nvalue = [3, 0]"] ;
2580 -> 2581 ;
2582 [label="hourly_wages <= 15.926\ngini = 0.318\nsamples = 727\nvalue = [144, 583]"] ;
2580 -> 2582 ;
2583 [label="no_of_employees <= 344.5\ngini = 0.131\nsamples = 57\nvalue = [4, 53]"] ;
2582 -> 2583 ;
2584 [label="hourly_wages <= 8.57\ngini = 0.444\nsamples = 3\nvalue = [1, 2]"] ;
2583 -> 2584 ;
2585 [label="(...)"] ;
2584 -> 2585 ;
2586 [label="(...)"] ;
2584 -> 2586 ;
2587 [label="hourly_wages <= 4.99\ngini = 0.105\nsamples = 54\nvalue = [3, 51]"] ;
2583 -> 2587 ;
2588 [label="(...)"] ;
2587 -> 2588 ;
2595 [label="(...)"] ;
2587 -> 2595 ;
2600 [label="yrs_since_estab <= 21.5\ngini = 0.331\nsamples = 670\nvalue = [140, 530]"] ;
2582 -> 2600 ;
2601 [label="hourly_wages <= 16.179\ngini = 0.288\nsamples = 390\nvalue = [68, 322]"] ;
2600 -> 2601 ;
2602 [label="(...)"] ;
2601 -> 2602 ;
2603 [label="(...)"] ;
2601 -> 2603 ;
2772 [label="yrs_since_estab <= 137.5\ngini = 0.382\nsamples = 280\nvalue = [72, 208]"] ;
2600 -> 2772 ;
2773 [label="(...)"] ;
2772 -> 2773 ;
2916 [label="(...)"] ;
2772 -> 2916 ;
2925 [label="full_time_position <= 0.5\ngini = 0.473\nsamples = 13\nvalue = [8, 5]"] ;
2579 -> 2925 ;
2926 [label="gini = 0.0\nsamples = 4\nvalue = [4, 0]"] ;
2925 -> 2926 ;
2927 [label="no_of_employees <= 63368.0\ngini = 0.494\nsamples = 9\nvalue = [4, 5]"] ;
2925 -> 2927 ;
2928 [label="gini = 0.0\nsamples = 2\nvalue = [2, 0]"] ;
2927 -> 2928 ;
2929 [label="no_of_employees <= 73100.5\ngini = 0.408\nsamples = 7\nvalue = [2, 5]"] ;
2927 -> 2929 ;
2930 [label="gini = 0.0\nsamples = 3\nvalue = [0, 3]"] ;
2929 -> 2930 ;
2931 [label="no_of_employees <= 93139.5\ngini = 0.5\nsamples = 4\nvalue = [2, 2]"] ;
2929 -> 2931 ;
2932 [label="(...)"] ;
2931 -> 2932 ;
2933 [label="(...)"] ;
2931 -> 2933 ;
2934 [label="hourly_wages <= 1367.194\ngini = 0.418\nsamples = 406\nvalue = [121, 285]"] ;
2578 -> 2934 ;
2935 [label="yrs_since_estab <= 27.5\ngini = 0.413\nsamples = 402\nvalue = [117, 285]"] ;
2934 -> 2935 ;
2936 [label="no_of_employees <= 1951.5\ngini = 0.444\nsamples = 247\nvalue = [82, 165]"] ;
2935 -> 2936 ;
2937 [label="no_of_employees <= 1218.0\ngini = 0.481\nsamples = 127\nvalue = [51, 76]"] ;
2936 -> 2937 ;
2938 [label="hourly_wages <= 30.358\ngini = 0.43\nsamples = 83\nvalue = [26, 57]"] ;
2937 -> 2938 ;
2939 [label="(...)"] ;
2938 -> 2939 ;
2966 [label="(...)"] ;
2938 -> 2966 ;
2997 [label="hourly_wages <= 69.145\ngini = 0.491\nsamples = 44\nvalue = [25, 19]"] ;
2937 -> 2997 ;
2998 [label="(...)"] ;
2997 -> 2998 ;
3023 [label="(...)"] ;
2997 -> 3023 ;
3024 [label="yrs_since_estab <= 23.5\ngini = 0.383\nsamples = 120\nvalue = [31, 89]"] ;
2936 -> 3024 ;
3025 [label="hourly_wages <= 53.289\ngini = 0.359\nsamples = 115\nvalue = [27, 88]"] ;
3024 -> 3025 ;
3026 [label="(...)"] ;
3025 -> 3026 ;
3055 [label="(...)"] ;
3025 -> 3055 ;
3080 [label="hourly_wages <= 62.161\ngini = 0.32\nsamples = 5\nvalue = [4, 1]"] ;
3024 -> 3080 ;
3081 [label="(...)"] ;
3080 -> 3081 ;
3082 [label="(...)"] ;
3080 -> 3082 ;
3083 [label="hourly_wages <= 49.984\ngini = 0.35\nsamples = 155\nvalue = [35, 120]"] ;
2935 -> 3083 ;
3084 [label="hourly_wages <= 33.256\ngini = 0.429\nsamples = 93\nvalue = [29, 64]"] ;
3083 -> 3084 ;
3085 [label="no_of_employees <= 249.0\ngini = 0.33\nsamples = 48\nvalue = [10, 38]"] ;
3084 -> 3085 ;
3086 [label="(...)"] ;
3085 -> 3086 ;
3087 [label="(...)"] ;
3085 -> 3087 ;
3104 [label="hourly_wages <= 37.111\ngini = 0.488\nsamples = 45\nvalue = [19, 26]"] ;
3084 -> 3104 ;
3105 [label="(...)"] ;
3104 -> 3105 ;
3112 [label="(...)"] ;
3104 -> 3112 ;
3131 [label="yrs_since_estab <= 40.5\ngini = 0.175\nsamples = 62\nvalue = [6, 56]"] ;
3083 -> 3131 ;
3132 [label="yrs_since_estab <= 37.5\ngini = 0.351\nsamples = 22\nvalue = [5, 17]"] ;
3131 -> 3132 ;
3133 [label="(...)"] ;
3132 -> 3133 ;
3138 [label="(...)"] ;
3132 -> 3138 ;
3141 [label="hourly_wages <= 59.926\ngini = 0.049\nsamples = 40\nvalue = [1, 39]"] ;
3131 -> 3141 ;
3142 [label="(...)"] ;
3141 -> 3142 ;
3145 [label="(...)"] ;
3141 -> 3145 ;
3146 [label="gini = 0.0\nsamples = 4\nvalue = [4, 0]"] ;
2934 -> 3146 ;
3147 [label="hourly_wages <= 16.08\ngini = 0.253\nsamples = 994\nvalue = [148, 846]"] ;
3 -> 3147 ;
3148 [label="no_of_employees <= 186992.0\ngini = 0.146\nsamples = 302\nvalue = [24, 278]"] ;
3147 -> 3148 ;
3149 [label="hourly_wages <= 10.808\ngini = 0.136\nsamples = 299\nvalue = [22, 277]"] ;
3148 -> 3149 ;
3150 [label="no_of_employees <= 4284.5\ngini = 0.093\nsamples = 184\nvalue = [9, 175]"] ;
3149 -> 3150 ;
3151 [label="hourly_wages <= 0.766\ngini = 0.055\nsamples = 142\nvalue = [4, 138]"] ;
3150 -> 3151 ;
3152 [label="hourly_wages <= 0.693\ngini = 0.278\nsamples = 12\nvalue = [2, 10]"] ;
3151 -> 3152 ;
3153 [label="hourly_wages <= 0.353\ngini = 0.165\nsamples = 11\nvalue = [1, 10]"] ;
3152 -> 3153 ;
3154 [label="(...)"] ;
3153 -> 3154 ;
3155 [label="(...)"] ;
3153 -> 3155 ;
3158 [label="gini = 0.0\nsamples = 1\nvalue = [1, 0]"] ;
3152 -> 3158 ;
3159 [label="yrs_since_estab <= 109.5\ngini = 0.03\nsamples = 130\nvalue = [2, 128]"] ;
3151 -> 3159 ;
3160 [label="requires_job_training <= 0.5\ngini = 0.017\nsamples = 120\nvalue = [1, 119]"] ;
3159 -> 3160 ;
3161 [label="(...)"] ;
3160 -> 3161 ;
3162 [label="(...)"] ;
3160 -> 3162 ;
3169 [label="yrs_since_estab <= 115.5\ngini = 0.18\nsamples = 10\nvalue = [1, 9]"] ;
3159 -> 3169 ;
3170 [label="(...)"] ;
3169 -> 3170 ;
3171 [label="(...)"] ;
3169 -> 3171 ;
3172 [label="no_of_employees <= 4313.0\ngini = 0.21\nsamples = 42\nvalue = [5, 37]"] ;
3150 -> 3172 ;
3173 [label="gini = 0.0\nsamples = 1\nvalue = [1, 0]"] ;
3172 -> 3173 ;
3174 [label="yrs_since_estab <= 149.5\ngini = 0.176\nsamples = 41\nvalue = [4, 37]"] ;
3172 -> 3174 ;
3175 [label="no_of_employees <= 5272.5\ngini = 0.139\nsamples = 40\nvalue = [3, 37]"] ;
3174 -> 3175 ;
3176 [label="(...)"] ;
3175 -> 3176 ;
3187 [label="(...)"] ;
3175 -> 3187 ;
3188 [label="gini = 0.0\nsamples = 1\nvalue = [1, 0]"] ;
3174 -> 3188 ;
3189 [label="hourly_wages <= 10.866\ngini = 0.201\nsamples = 115\nvalue = [13, 102]"] ;
3149 -> 3189 ;
3190 [label="gini = 0.0\nsamples = 2\nvalue = [2, 0]"] ;
3189 -> 3190 ;
3191 [label="hourly_wages <= 14.354\ngini = 0.176\nsamples = 113\nvalue = [11, 102]"] ;
3189 -> 3191 ;
3192 [label="hourly_wages <= 14.325\ngini = 0.219\nsamples = 80\nvalue = [10, 70]"] ;
3191 -> 3192 ;
3193 [label="no_of_employees <= 155.5\ngini = 0.202\nsamples = 79\nvalue = [9, 70]"] ;
3192 -> 3193 ;
3194 [label="(...)"] ;
3193 -> 3194 ;
3197 [label="(...)"] ;
3193 -> 3197 ;
3222 [label="gini = 0.0\nsamples = 1\nvalue = [1, 0]"] ;
3192 -> 3222 ;
3223 [label="no_of_employees <= 426.0\ngini = 0.059\nsamples = 33\nvalue = [1, 32]"] ;
3191 -> 3223 ;
3224 [label="yrs_since_estab <= 42.0\ngini = 0.375\nsamples = 4\nvalue = [1, 3]"] ;
3223 -> 3224 ;
3225 [label="(...)"] ;
3224 -> 3225 ;
3226 [label="(...)"] ;
3224 -> 3226 ;
3227 [label="gini = 0.0\nsamples = 29\nvalue = [0, 29]"] ;
3223 -> 3227 ;
3228 [label="yrs_since_estab <= 37.0\ngini = 0.444\nsamples = 3\nvalue = [2, 1]"] ;
3148 -> 3228 ;
3229 [label="gini = 0.0\nsamples = 1\nvalue = [0, 1]"] ;
3228 -> 3229 ;
3230 [label="gini = 0.0\nsamples = 2\nvalue = [2, 0]"] ;
3228 -> 3230 ;
3231 [label="education_of_employee_Bachelor's <= 0.5\ngini = 0.294\nsamples = 692\nvalue = [124, 568]"] ;
3147 -> 3231 ;
3232 [label="hourly_wages <= 16.227\ngini = 0.239\nsamples = 410\nvalue = [57, 353]"] ;
3231 -> 3232 ;
3233 [label="gini = 0.0\nsamples = 2\nvalue = [2, 0]"] ;
3232 -> 3233 ;
3234 [label="unit_of_wage_Month <= 0.5\ngini = 0.233\nsamples = 408\nvalue = [55, 353]"] ;
3232 -> 3234 ;
3235 [label="yrs_since_estab <= 198.5\ngini = 0.23\nsamples = 407\nvalue = [54, 353]"] ;
3234 -> 3235 ;
3236 [label="yrs_since_estab <= 11.5\ngini = 0.227\nsamples = 406\nvalue = [53, 353]"] ;
3235 -> 3236 ;
3237 [label="no_of_employees <= 59.5\ngini = 0.115\nsamples = 98\nvalue = [6, 92]"] ;
3236 -> 3237 ;
3238 [label="(...)"] ;
3237 -> 3238 ;
3239 [label="(...)"] ;
3237 -> 3239 ;
3260 [label="no_of_employees <= 2625.0\ngini = 0.259\nsamples = 308\nvalue = [47, 261]"] ;
3236 -> 3260 ;
3261 [label="(...)"] ;
3260 -> 3261 ;
3334 [label="(...)"] ;
3260 -> 3334 ;
3387 [label="gini = 0.0\nsamples = 1\nvalue = [1, 0]"] ;
3235 -> 3387 ;
3388 [label="gini = 0.0\nsamples = 1\nvalue = [1, 0]"] ;
3234 -> 3388 ;
3389 [label="full_time_position <= 0.5\ngini = 0.362\nsamples = 282\nvalue = [67, 215]"] ;
3231 -> 3389 ;
3390 [label="yrs_since_estab <= 14.0\ngini = 0.397\nsamples = 11\nvalue = [8, 3]"] ;
3389 -> 3390 ;
3391 [label="gini = 0.0\nsamples = 2\nvalue = [0, 2]"] ;
3390 -> 3391 ;
3392 [label="yrs_since_estab <= 136.5\ngini = 0.198\nsamples = 9\nvalue = [8, 1]"] ;
3390 -> 3392 ;
3393 [label="gini = 0.0\nsamples = 7\nvalue = [7, 0]"] ;
3392 -> 3393 ;
3394 [label="no_of_employees <= 2269.0\ngini = 0.5\nsamples = 2\nvalue = [1, 1]"] ;
3392 -> 3394 ;
3395 [label="gini = 0.0\nsamples = 1\nvalue = [1, 0]"] ;
3394 -> 3395 ;
3396 [label="gini = 0.0\nsamples = 1\nvalue = [0, 1]"] ;
3394 -> 3396 ;
3397 [label="no_of_employees <= 2548.0\ngini = 0.341\nsamples = 271\nvalue = [59, 212]"] ;
3389 -> 3397 ;
3398 [label="no_of_employees <= 1948.0\ngini = 0.402\nsamples = 158\nvalue = [44, 114]"] ;
3397 -> 3398 ;
3399 [label="no_of_employees <= 51.5\ngini = 0.357\nsamples = 129\nvalue = [30, 99]"] ;
3398 -> 3399 ;
3400 [label="gini = 0.0\nsamples = 2\nvalue = [2, 0]"] ;
3399 -> 3400 ;
3401 [label="hourly_wages <= 44.763\ngini = 0.344\nsamples = 127\nvalue = [28, 99]"] ;
3399 -> 3401 ;
3402 [label="(...)"] ;
3401 -> 3402 ;
3431 [label="(...)"] ;
3401 -> 3431 ;
3464 [label="yrs_since_estab <= 7.5\ngini = 0.499\nsamples = 29\nvalue = [14, 15]"] ;
3398 -> 3464 ;
3465 [label="gini = 0.0\nsamples = 3\nvalue = [3, 0]"] ;
3464 -> 3465 ;
3466 [label="yrs_since_estab <= 95.0\ngini = 0.488\nsamples = 26\nvalue = [11, 15]"] ;
3464 -> 3466 ;
3467 [label="(...)"] ;
3466 -> 3467 ;
3486 [label="(...)"] ;
3466 -> 3486 ;
3487 [label="yrs_since_estab <= 102.0\ngini = 0.23\nsamples = 113\nvalue = [15, 98]"] ;
3397 -> 3487 ;
3488 [label="no_of_employees <= 3192.0\ngini = 0.206\nsamples = 103\nvalue = [12, 91]"] ;
3487 -> 3488 ;
3489 [label="region_of_employment_Midwest <= 0.5\ngini = 0.064\nsamples = 30\nvalue = [1, 29]"] ;
3488 -> 3489 ;
3490 [label="(...)"] ;
3489 -> 3490 ;
3491 [label="(...)"] ;
3489 -> 3491 ;
3494 [label="no_of_employees <= 3280.5\ngini = 0.256\nsamples = 73\nvalue = [11, 62]"] ;
3488 -> 3494 ;
3495 [label="(...)"] ;
3494 -> 3495 ;
3496 [label="(...)"] ;
3494 -> 3496 ;
3521 [label="yrs_since_estab <= 170.0\ngini = 0.42\nsamples = 10\nvalue = [3, 7]"] ;
3487 -> 3521 ;
3522 [label="no_of_employees <= 3169.5\ngini = 0.5\nsamples = 6\nvalue = [3, 3]"] ;
3521 -> 3522 ;
3523 [label="(...)"] ;
3522 -> 3523 ;
3524 [label="(...)"] ;
3522 -> 3524 ;
3529 [label="gini = 0.0\nsamples = 4\nvalue = [0, 4]"] ;
3521 -> 3529 ;
3530 [label="education_of_employee_Doctorate <= 0.5\ngini = 0.437\nsamples = 906\nvalue = [614, 292]"] ;
2 -> 3530 ;
3531 [label="region_of_employment_South <= 0.5\ngini = 0.424\nsamples = 852\nvalue = [592, 260]"] ;
3530 -> 3531 ;
3532 [label="yrs_since_estab <= 44.5\ngini = 0.4\nsamples = 579\nvalue = [419, 160]"] ;
3531 -> 3532 ;
3533 [label="hourly_wages <= 973.827\ngini = 0.363\nsamples = 420\nvalue = [320, 100]"] ;
3532 -> 3533 ;
3534 [label="education_of_employee_Bachelor's <= 0.5\ngini = 0.356\nsamples = 414\nvalue = [318, 96]"] ;
3533 -> 3534 ;
3535 [label="full_time_position <= 0.5\ngini = 0.402\nsamples = 172\nvalue = [124, 48]"] ;
3534 -> 3535 ;
3536 [label="gini = 0.0\nsamples = 2\nvalue = [0, 2]"] ;
3535 -> 3536 ;
3537 [label="no_of_employees <= 530.5\ngini = 0.395\nsamples = 170\nvalue = [124, 46]"] ;
3535 -> 3537 ;
3538 [label="no_of_employees <= 384.5\ngini = 0.497\nsamples = 26\nvalue = [14, 12]"] ;
3537 -> 3538 ;
3539 [label="(...)"] ;
3538 -> 3539 ;
3552 [label="(...)"] ;
3538 -> 3552 ;
3557 [label="continent_Asia <= 0.5\ngini = 0.361\nsamples = 144\nvalue = [110, 34]"] ;
3537 -> 3557 ;
3558 [label="(...)"] ;
3557 -> 3558 ;
3577 [label="(...)"] ;
3557 -> 3577 ;
3624 [label="no_of_employees <= 619.5\ngini = 0.318\nsamples = 242\nvalue = [194, 48]"] ;
3534 -> 3624 ;
3625 [label="yrs_since_estab <= 17.5\ngini = 0.13\nsamples = 43\nvalue = [40, 3]"] ;
3624 -> 3625 ;
3626 [label="gini = 0.0\nsamples = 22\nvalue = [22, 0]"] ;
3625 -> 3626 ;
3627 [label="no_of_employees <= 466.5\ngini = 0.245\nsamples = 21\nvalue = [18, 3]"] ;
3625 -> 3627 ;
3628 [label="(...)"] ;
3627 -> 3628 ;
3637 [label="(...)"] ;
3627 -> 3637 ;
3638 [label="no_of_employees <= 720.0\ngini = 0.35\nsamples = 199\nvalue = [154, 45]"] ;
3624 -> 3638 ;
3639 [label="hourly_wages <= 84.541\ngini = 0.408\nsamples = 7\nvalue = [2, 5]"] ;
3638 -> 3639 ;
3640 [label="(...)"] ;
3639 -> 3640 ;
3641 [label="(...)"] ;
3639 -> 3641 ;
3644 [label="continent_North America <= 0.5\ngini = 0.33\nsamples = 192\nvalue = [152, 40]"] ;
3638 -> 3644 ;
3645 [label="(...)"] ;
3644 -> 3645 ;
3708 [label="(...)"] ;
3644 -> 3708 ;
3733 [label="hourly_wages <= 989.061\ngini = 0.444\nsamples = 6\nvalue = [2, 4]"] ;
3533 -> 3733 ;
3734 [label="gini = 0.0\nsamples = 4\nvalue = [0, 4]"] ;
3733 -> 3734 ;
3735 [label="gini = 0.0\nsamples = 2\nvalue = [2, 0]"] ;
3733 -> 3735 ;
3736 [label="no_of_employees <= 660.5\ngini = 0.47\nsamples = 159\nvalue = [99, 60]"] ;
3532 -> 3736 ;
3737 [label="yrs_since_estab <= 130.0\ngini = 0.245\nsamples = 21\nvalue = [18, 3]"] ;
3736 -> 3737 ;
3738 [label="no_of_employees <= 471.5\ngini = 0.105\nsamples = 18\nvalue = [17, 1]"] ;
3737 -> 3738 ;
3739 [label="gini = 0.0\nsamples = 14\nvalue = [14, 0]"] ;
3738 -> 3739 ;
3740 [label="no_of_employees <= 500.0\ngini = 0.375\nsamples = 4\nvalue = [3, 1]"] ;
3738 -> 3740 ;
3741 [label="gini = 0.0\nsamples = 1\nvalue = [0, 1]"] ;
3740 -> 3741 ;
3742 [label="gini = 0.0\nsamples = 3\nvalue = [3, 0]"] ;
3740 -> 3742 ;
3743 [label="yrs_since_estab <= 165.0\ngini = 0.444\nsamples = 3\nvalue = [1, 2]"] ;
3737 -> 3743 ;
3744 [label="gini = 0.0\nsamples = 2\nvalue = [0, 2]"] ;
3743 -> 3744 ;
3745 [label="gini = 0.0\nsamples = 1\nvalue = [1, 0]"] ;
3743 -> 3745 ;
3746 [label="no_of_employees <= 1019.0\ngini = 0.485\nsamples = 138\nvalue = [81, 57]"] ;
3736 -> 3746 ;
3747 [label="continent_Asia <= 0.5\ngini = 0.48\nsamples = 20\nvalue = [8, 12]"] ;
3746 -> 3747 ;
3748 [label="hourly_wages <= 849.398\ngini = 0.32\nsamples = 10\nvalue = [2, 8]"] ;
3747 -> 3748 ;
3749 [label="full_time_position <= 0.5\ngini = 0.198\nsamples = 9\nvalue = [1, 8]"] ;
3748 -> 3749 ;
3750 [label="(...)"] ;
3749 -> 3750 ;
3751 [label="(...)"] ;
3749 -> 3751 ;
3752 [label="gini = 0.0\nsamples = 1\nvalue = [1, 0]"] ;
3748 -> 3752 ;
3753 [label="hourly_wages <= 166.226\ngini = 0.48\nsamples = 10\nvalue = [6, 4]"] ;
3747 -> 3753 ;
3754 [label="gini = 0.0\nsamples = 3\nvalue = [3, 0]"] ;
3753 -> 3754 ;
3755 [label="no_of_employees <= 936.5\ngini = 0.49\nsamples = 7\nvalue = [3, 4]"] ;
3753 -> 3755 ;
3756 [label="(...)"] ;
3755 -> 3756 ;
3761 [label="(...)"] ;
3755 -> 3761 ;
3762 [label="no_of_employees <= 2074.0\ngini = 0.472\nsamples = 118\nvalue = [73, 45]"] ;
3746 -> 3762 ;
3763 [label="education_of_employee_Bachelor's <= 0.5\ngini = 0.391\nsamples = 45\nvalue = [33, 12]"] ;
3762 -> 3763 ;
3764 [label="yrs_since_estab <= 93.0\ngini = 0.484\nsamples = 17\nvalue = [10, 7]"] ;
3763 -> 3764 ;
3765 [label="(...)"] ;
3764 -> 3765 ;
3772 [label="(...)"] ;
3764 -> 3772 ;
3775 [label="region_of_employment_Midwest <= 0.5\ngini = 0.293\nsamples = 28\nvalue = [23, 5]"] ;
3763 -> 3775 ;
3776 [label="(...)"] ;
3775 -> 3776 ;
3789 [label="(...)"] ;
3775 -> 3789 ;
3790 [label="no_of_employees <= 2916.5\ngini = 0.495\nsamples = 73\nvalue = [40, 33]"] ;
3762 -> 3790 ;
3791 [label="hourly_wages <= 37.61\ngini = 0.475\nsamples = 31\nvalue = [12, 19]"] ;
3790 -> 3791 ;
3792 [label="(...)"] ;
3791 -> 3792 ;
3793 [label="(...)"] ;
3791 -> 3793 ;
3812 [label="yrs_since_estab <= 162.5\ngini = 0.444\nsamples = 42\nvalue = [28, 14]"] ;
3790 -> 3812 ;
3813 [label="(...)"] ;
3812 -> 3813 ;
3836 [label="(...)"] ;
3812 -> 3836 ;
3839 [label="hourly_wages <= 113.418\ngini = 0.464\nsamples = 273\nvalue = [173, 100]"] ;
3531 -> 3839 ;
3840 [label="no_of_employees <= 3518.5\ngini = 0.364\nsamples = 46\nvalue = [35, 11]"] ;
3839 -> 3840 ;
3841 [label="no_of_employees <= 462.5\ngini = 0.278\nsamples = 42\nvalue = [35, 7]"] ;
3840 -> 3841 ;
3842 [label="yrs_since_estab <= 17.5\ngini = 0.494\nsamples = 9\nvalue = [5, 4]"] ;
3841 -> 3842 ;
3843 [label="no_of_employees <= 246.5\ngini = 0.32\nsamples = 5\nvalue = [1, 4]"] ;
3842 -> 3843 ;
3844 [label="gini = 0.0\nsamples = 1\nvalue = [1, 0]"] ;
3843 -> 3844 ;
3845 [label="gini = 0.0\nsamples = 4\nvalue = [0, 4]"] ;
3843 -> 3845 ;
3846 [label="gini = 0.0\nsamples = 4\nvalue = [4, 0]"] ;
3842 -> 3846 ;
3847 [label="yrs_since_estab <= 144.5\ngini = 0.165\nsamples = 33\nvalue = [30, 3]"] ;
3841 -> 3847 ;
3848 [label="hourly_wages <= 12.206\ngini = 0.067\nsamples = 29\nvalue = [28, 1]"] ;
3847 -> 3848 ;
3849 [label="hourly_wages <= 8.876\ngini = 0.5\nsamples = 2\nvalue = [1, 1]"] ;
3848 -> 3849 ;
3850 [label="(...)"] ;
3849 -> 3850 ;
3851 [label="(...)"] ;
3849 -> 3851 ;
3852 [label="gini = 0.0\nsamples = 27\nvalue = [27, 0]"] ;
3848 -> 3852 ;
3853 [label="yrs_since_estab <= 146.5\ngini = 0.5\nsamples = 4\nvalue = [2, 2]"] ;
3847 -> 3853 ;
3854 [label="gini = 0.0\nsamples = 1\nvalue = [0, 1]"] ;
3853 -> 3854 ;
3855 [label="hourly_wages <= 60.208\ngini = 0.444\nsamples = 3\nvalue = [2, 1]"] ;
3853 -> 3855 ;
3856 [label="(...)"] ;
3855 -> 3856 ;
3857 [label="(...)"] ;
3855 -> 3857 ;
3860 [label="gini = 0.0\nsamples = 4\nvalue = [0, 4]"] ;
3840 -> 3860 ;
3861 [label="no_of_employees <= 3681.0\ngini = 0.477\nsamples = 227\nvalue = [138, 89]"] ;
3839 -> 3861 ;
3862 [label="no_of_employees <= 3632.5\ngini = 0.488\nsamples = 194\nvalue = [112, 82]"] ;
3861 -> 3862 ;
3863 [label="no_of_employees <= 994.5\ngini = 0.485\nsamples = 191\nvalue = [112, 79]"] ;
3862 -> 3863 ;
3864 [label="hourly_wages <= 784.324\ngini = 0.437\nsamples = 65\nvalue = [44, 21]"] ;
3863 -> 3864 ;
3865 [label="hourly_wages <= 118.62\ngini = 0.4\nsamples = 58\nvalue = [42, 16]"] ;
3864 -> 3865 ;
3866 [label="(...)"] ;
3865 -> 3866 ;
3867 [label="(...)"] ;
3865 -> 3867 ;
3904 [label="yrs_since_estab <= 12.0\ngini = 0.408\nsamples = 7\nvalue = [2, 5]"] ;
3864 -> 3904 ;
3905 [label="(...)"] ;
3904 -> 3905 ;
3906 [label="(...)"] ;
3904 -> 3906 ;
3907 [label="no_of_employees <= 1725.0\ngini = 0.497\nsamples = 126\nvalue = [68, 58]"] ;
3863 -> 3907 ;
3908 [label="education_of_employee_Bachelor's <= 0.5\ngini = 0.476\nsamples = 41\nvalue = [16, 25]"] ;
3907 -> 3908 ;
3909 [label="(...)"] ;
3908 -> 3909 ;
3922 [label="(...)"] ;
3908 -> 3922 ;
3939 [label="yrs_since_estab <= 173.5\ngini = 0.475\nsamples = 85\nvalue = [52, 33]"] ;
3907 -> 3939 ;
3940 [label="(...)"] ;
3939 -> 3940 ;
3993 [label="(...)"] ;
3939 -> 3993 ;
3994 [label="gini = 0.0\nsamples = 3\nvalue = [0, 3]"] ;
3862 -> 3994 ;
3995 [label="yrs_since_estab <= 29.0\ngini = 0.334\nsamples = 33\nvalue = [26, 7]"] ;
3861 -> 3995 ;
3996 [label="yrs_since_estab <= 25.0\ngini = 0.457\nsamples = 17\nvalue = [11, 6]"] ;
3995 -> 3996 ;
3997 [label="no_of_employees <= 7105.5\ngini = 0.391\nsamples = 15\nvalue = [11, 4]"] ;
3996 -> 3997 ;
3998 [label="no_of_employees <= 4713.5\ngini = 0.48\nsamples = 10\nvalue = [6, 4]"] ;
3997 -> 3998 ;
3999 [label="(...)"] ;
3998 -> 3999 ;
4004 [label="(...)"] ;
3998 -> 4004 ;
4005 [label="gini = 0.0\nsamples = 5\nvalue = [5, 0]"] ;
3997 -> 4005 ;
4006 [label="gini = 0.0\nsamples = 2\nvalue = [0, 2]"] ;
3996 -> 4006 ;
4007 [label="continent_Oceania <= 0.5\ngini = 0.117\nsamples = 16\nvalue = [15, 1]"] ;
3995 -> 4007 ;
4008 [label="gini = 0.0\nsamples = 15\nvalue = [15, 0]"] ;
4007 -> 4008 ;
4009 [label="gini = 0.0\nsamples = 1\nvalue = [0, 1]"] ;
4007 -> 4009 ;
4010 [label="continent_Asia <= 0.5\ngini = 0.483\nsamples = 54\nvalue = [22, 32]"] ;
3530 -> 4010 ;
4011 [label="region_of_employment_Northeast <= 0.5\ngini = 0.491\nsamples = 23\nvalue = [13, 10]"] ;
4010 -> 4011 ;
4012 [label="yrs_since_estab <= 42.5\ngini = 0.298\nsamples = 11\nvalue = [9, 2]"] ;
4011 -> 4012 ;
4013 [label="no_of_employees <= 1292.0\ngini = 0.18\nsamples = 10\nvalue = [9, 1]"] ;
4012 -> 4013 ;
4014 [label="no_of_employees <= 677.5\ngini = 0.444\nsamples = 3\nvalue = [2, 1]"] ;
4013 -> 4014 ;
4015 [label="gini = 0.0\nsamples = 2\nvalue = [2, 0]"] ;
4014 -> 4015 ;
4016 [label="gini = 0.0\nsamples = 1\nvalue = [0, 1]"] ;
4014 -> 4016 ;
4017 [label="gini = 0.0\nsamples = 7\nvalue = [7, 0]"] ;
4013 -> 4017 ;
4018 [label="gini = 0.0\nsamples = 1\nvalue = [0, 1]"] ;
4012 -> 4018 ;
4019 [label="hourly_wages <= 170.825\ngini = 0.444\nsamples = 12\nvalue = [4, 8]"] ;
4011 -> 4019 ;
4020 [label="gini = 0.0\nsamples = 4\nvalue = [0, 4]"] ;
4019 -> 4020 ;
4021 [label="hourly_wages <= 344.897\ngini = 0.5\nsamples = 8\nvalue = [4, 4]"] ;
4019 -> 4021 ;
4022 [label="gini = 0.0\nsamples = 3\nvalue = [3, 0]"] ;
4021 -> 4022 ;
4023 [label="hourly_wages <= 844.936\ngini = 0.32\nsamples = 5\nvalue = [1, 4]"] ;
4021 -> 4023 ;
4024 [label="gini = 0.0\nsamples = 4\nvalue = [0, 4]"] ;
4023 -> 4024 ;
4025 [label="gini = 0.0\nsamples = 1\nvalue = [1, 0]"] ;
4023 -> 4025 ;
4026 [label="hourly_wages <= 165.489\ngini = 0.412\nsamples = 31\nvalue = [9, 22]"] ;
4010 -> 4026 ;
4027 [label="gini = 0.0\nsamples = 7\nvalue = [0, 7]"] ;
4026 -> 4027 ;
4028 [label="hourly_wages <= 813.14\ngini = 0.469\nsamples = 24\nvalue = [9, 15]"] ;
4026 -> 4028 ;
4029 [label="yrs_since_estab <= 113.5\ngini = 0.495\nsamples = 20\nvalue = [9, 11]"] ;
4028 -> 4029 ;
4030 [label="yrs_since_estab <= 29.5\ngini = 0.498\nsamples = 17\nvalue = [9, 8]"] ;
4029 -> 4030 ;
4031 [label="yrs_since_estab <= 7.0\ngini = 0.444\nsamples = 12\nvalue = [4, 8]"] ;
4030 -> 4031 ;
4032 [label="gini = 0.0\nsamples = 1\nvalue = [1, 0]"] ;
4031 -> 4032 ;
4033 [label="no_of_employees <= 1820.5\ngini = 0.397\nsamples = 11\nvalue = [3, 8]"] ;
4031 -> 4033 ;
4034 [label="(...)"] ;
4033 -> 4034 ;
4039 [label="(...)"] ;
4033 -> 4039 ;
4040 [label="gini = 0.0\nsamples = 5\nvalue = [5, 0]"] ;
4030 -> 4040 ;
4041 [label="gini = 0.0\nsamples = 3\nvalue = [0, 3]"] ;
4029 -> 4041 ;
4042 [label="gini = 0.0\nsamples = 4\nvalue = [0, 4]"] ;
4028 -> 4042 ;
4043 [label="education_of_employee_Bachelor's <= 0.5\ngini = 0.311\nsamples = 10217\nvalue = [1966, 8251]"] ;
1 -> 4043 ;
4044 [label="unit_of_wage_Hour <= 0.5\ngini = 0.186\nsamples = 5490\nvalue = [570, 4920]"] ;
4043 -> 4044 ;
4045 [label="region_of_employment_Midwest <= 0.5\ngini = 0.173\nsamples = 5283\nvalue = [504, 4779]"] ;
4044 -> 4045 ;
4046 [label="region_of_employment_South <= 0.5\ngini = 0.196\nsamples = 4349\nvalue = [480, 3869]"] ;
4045 -> 4046 ;
4047 [label="continent_North America <= 0.5\ngini = 0.237\nsamples = 3002\nvalue = [413, 2589]"] ;
4046 -> 4047 ;
4048 [label="education_of_employee_Doctorate <= 0.5\ngini = 0.213\nsamples = 2531\nvalue = [307, 2224]"] ;
4047 -> 4048 ;
4049 [label="hourly_wages <= 14.298\ngini = 0.236\nsamples = 1971\nvalue = [269, 1702]"] ;
4048 -> 4049 ;
4050 [label="no_of_employees <= 215760.0\ngini = 0.162\nsamples = 349\nvalue = [31, 318]"] ;
4049 -> 4050 ;
4051 [label="region_of_employment_Island <= 0.5\ngini = 0.158\nsamples = 348\nvalue = [30, 318]"] ;
4050 -> 4051 ;
4052 [label="(...)"] ;
4051 -> 4052 ;
4149 [label="(...)"] ;
4051 -> 4149 ;
4152 [label="gini = 0.0\nsamples = 1\nvalue = [1, 0]"] ;
4050 -> 4152 ;
4153 [label="yrs_since_estab <= 8.5\ngini = 0.25\nsamples = 1622\nvalue = [238, 1384]"] ;
4049 -> 4153 ;
4154 [label="no_of_employees <= 138.0\ngini = 0.156\nsamples = 246\nvalue = [21, 225]"] ;
4153 -> 4154 ;
4155 [label="(...)"] ;
4154 -> 4155 ;
4158 [label="(...)"] ;
4154 -> 4158 ;
4217 [label="no_of_employees <= 48.0\ngini = 0.266\nsamples = 1376\nvalue = [217, 1159]"] ;
4153 -> 4217 ;
4218 [label="(...)"] ;
4217 -> 4218 ;
4223 [label="(...)"] ;
4217 -> 4223 ;
4762 [label="yrs_since_estab <= 209.5\ngini = 0.127\nsamples = 560\nvalue = [38, 522]"] ;
4048 -> 4762 ;
4763 [label="hourly_wages <= 65.069\ngini = 0.124\nsamples = 559\nvalue = [37, 522]"] ;
4762 -> 4763 ;
4764 [label="requires_job_training <= 0.5\ngini = 0.109\nsamples = 521\nvalue = [30, 491]"] ;
4763 -> 4764 ;
4765 [label="(...)"] ;
4764 -> 4765 ;
4852 [label="(...)"] ;
4764 -> 4852 ;
4875 [label="yrs_since_estab <= 5.0\ngini = 0.301\nsamples = 38\nvalue = [7, 31]"] ;
4763 -> 4875 ;
4876 [label="(...)"] ;
4875 -> 4876 ;
4879 [label="(...)"] ;
4875 -> 4879 ;
4894 [label="gini = 0.0\nsamples = 1\nvalue = [1, 0]"] ;
4762 -> 4894 ;
4895 [label="yrs_since_estab <= 66.0\ngini = 0.349\nsamples = 471\nvalue = [106, 365]"] ;
4047 -> 4895 ;
4896 [label="unit_of_wage_Month <= 0.5\ngini = 0.322\nsamples = 392\nvalue = [79, 313]"] ;
4895 -> 4896 ;
4897 [label="hourly_wages <= 0.615\ngini = 0.317\nsamples = 390\nvalue = [77, 313]"] ;
4896 -> 4897 ;
4898 [label="gini = 0.0\nsamples = 2\nvalue = [2, 0]"] ;
4897 -> 4898 ;
4899 [label="no_of_employees <= 3843.5\ngini = 0.312\nsamples = 388\nvalue = [75, 313]"] ;
4897 -> 4899 ;
4900 [label="(...)"] ;
4899 -> 4900 ;
5033 [label="(...)"] ;
4899 -> 5033 ;
5068 [label="gini = 0.0\nsamples = 2\nvalue = [2, 0]"] ;
4896 -> 5068 ;
5069 [label="no_of_employees <= 93671.0\ngini = 0.45\nsamples = 79\nvalue = [27, 52]"] ;
4895 -> 5069 ;
5070 [label="hourly_wages <= 41.55\ngini = 0.439\nsamples = 77\nvalue = [25, 52]"] ;
5069 -> 5070 ;
5071 [label="hourly_wages <= 13.147\ngini = 0.482\nsamples = 47\nvalue = [19, 28]"] ;
5070 -> 5071 ;
5072 [label="(...)"] ;
5071 -> 5072 ;
5081 [label="(...)"] ;
5071 -> 5081 ;
5102 [label="yrs_since_estab <= 132.5\ngini = 0.32\nsamples = 30\nvalue = [6, 24]"] ;
5070 -> 5102 ;
5103 [label="(...)"] ;
5102 -> 5103 ;
5116 [label="(...)"] ;
5102 -> 5116 ;
5121 [label="gini = 0.0\nsamples = 2\nvalue = [2, 0]"] ;
5069 -> 5121 ;
5122 [label="full_time_position <= 0.5\ngini = 0.095\nsamples = 1347\nvalue = [67, 1280]"] ;
4046 -> 5122 ;
5123 [label="no_of_employees <= 182055.0\ngini = 0.273\nsamples = 257\nvalue = [42, 215]"] ;
5122 -> 5123 ;
5124 [label="hourly_wages <= 14.535\ngini = 0.269\nsamples = 256\nvalue = [41, 215]"] ;
5123 -> 5124 ;
5125 [label="no_of_employees <= 358.5\ngini = 0.459\nsamples = 14\nvalue = [5, 9]"] ;
5124 -> 5125 ;
5126 [label="gini = 0.0\nsamples = 2\nvalue = [2, 0]"] ;
5125 -> 5126 ;
5127 [label="hourly_wages <= 12.338\ngini = 0.375\nsamples = 12\nvalue = [3, 9]"] ;
5125 -> 5127 ;
5128 [label="(...)"] ;
5127 -> 5128 ;
5133 [label="(...)"] ;
5127 -> 5133 ;
5136 [label="no_of_employees <= 5071.5\ngini = 0.253\nsamples = 242\nvalue = [36, 206]"] ;
5124 -> 5136 ;
5137 [label="no_of_employees <= 4090.0\ngini = 0.272\nsamples = 216\nvalue = [35, 181]"] ;
5136 -> 5137 ;
5138 [label="(...)"] ;
5137 -> 5138 ;
5211 [label="(...)"] ;
5137 -> 5211 ;
5222 [label="hourly_wages <= 80.822\ngini = 0.074\nsamples = 26\nvalue = [1, 25]"] ;
5136 -> 5222 ;
5223 [label="(...)"] ;
5222 -> 5223 ;
5224 [label="(...)"] ;
5222 -> 5224 ;
5225 [label="gini = 0.0\nsamples = 1\nvalue = [1, 0]"] ;
5123 -> 5225 ;
5226 [label="requires_job_training <= 0.5\ngini = 0.045\nsamples = 1090\nvalue = [25, 1065]"] ;
5122 -> 5226 ;
5227 [label="hourly_wages <= 970.679\ngini = 0.008\nsamples = 944\nvalue = [4, 940]"] ;
5226 -> 5227 ;
5228 [label="gini = 0.0\nsamples = 930\nvalue = [0, 930]"] ;
5227 -> 5228 ;
5229 [label="yrs_since_estab <= 37.0\ngini = 0.408\nsamples = 14\nvalue = [4, 10]"] ;
5227 -> 5229 ;
5230 [label="gini = 0.0\nsamples = 8\nvalue = [0, 8]"] ;
5229 -> 5230 ;
5231 [label="hourly_wages <= 1788.879\ngini = 0.444\nsamples = 6\nvalue = [4, 2]"] ;
5229 -> 5231 ;
5232 [label="(...)"] ;
5231 -> 5232 ;
5233 [label="(...)"] ;
5231 -> 5233 ;
5236 [label="no_of_employees <= 285.0\ngini = 0.246\nsamples = 146\nvalue = [21, 125]"] ;
5226 -> 5236 ;
5237 [label="yrs_since_estab <= 6.5\ngini = 0.473\nsamples = 13\nvalue = [5, 8]"] ;
5236 -> 5237 ;
5238 [label="gini = 0.0\nsamples = 3\nvalue = [3, 0]"] ;
5237 -> 5238 ;
5239 [label="no_of_employees <= 165.0\ngini = 0.32\nsamples = 10\nvalue = [2, 8]"] ;
5237 -> 5239 ;
5240 [label="(...)"] ;
5239 -> 5240 ;
5241 [label="(...)"] ;
5239 -> 5241 ;
5244 [label="no_of_employees <= 2004.5\ngini = 0.212\nsamples = 133\nvalue = [16, 117]"] ;
5236 -> 5244 ;
5245 [label="continent_Europe <= 0.5\ngini = 0.088\nsamples = 65\nvalue = [3, 62]"] ;
5244 -> 5245 ;
5246 [label="(...)"] ;
5245 -> 5246 ;
5251 [label="(...)"] ;
5245 -> 5251 ;
5258 [label="continent_Europe <= 0.5\ngini = 0.309\nsamples = 68\nvalue = [13, 55]"] ;
5244 -> 5258 ;
5259 [label="(...)"] ;
5258 -> 5259 ;
5288 [label="(...)"] ;
5258 -> 5288 ;
5289 [label="full_time_position <= 0.5\ngini = 0.05\nsamples = 934\nvalue = [24, 910]"] ;
4045 -> 5289 ;
5290 [label="no_of_employees <= 2926.5\ngini = 0.285\nsamples = 116\nvalue = [20, 96]"] ;
5289 -> 5290 ;
5291 [label="yrs_since_estab <= 1.5\ngini = 0.178\nsamples = 71\nvalue = [7, 64]"] ;
5290 -> 5291 ;
5292 [label="gini = 0.0\nsamples = 1\nvalue = [1, 0]"] ;
5291 -> 5292 ;
5293 [label="yrs_since_estab <= 130.5\ngini = 0.157\nsamples = 70\nvalue = [6, 64]"] ;
5291 -> 5293 ;
5294 [label="hourly_wages <= 24.984\ngini = 0.138\nsamples = 67\nvalue = [5, 62]"] ;
5293 -> 5294 ;
5295 [label="hourly_wages <= 22.892\ngini = 0.26\nsamples = 13\nvalue = [2, 11]"] ;
5294 -> 5295 ;
5296 [label="(...)"] ;
5295 -> 5296 ;
5301 [label="(...)"] ;
5295 -> 5301 ;
5302 [label="yrs_since_estab <= 16.5\ngini = 0.105\nsamples = 54\nvalue = [3, 51]"] ;
5294 -> 5302 ;
5303 [label="(...)"] ;
5302 -> 5303 ;
5314 [label="(...)"] ;
5302 -> 5314 ;
5315 [label="yrs_since_estab <= 151.0\ngini = 0.444\nsamples = 3\nvalue = [1, 2]"] ;
5293 -> 5315 ;
5316 [label="gini = 0.0\nsamples = 1\nvalue = [1, 0]"] ;
5315 -> 5316 ;
5317 [label="gini = 0.0\nsamples = 2\nvalue = [0, 2]"] ;
5315 -> 5317 ;
5318 [label="yrs_since_estab <= 8.0\ngini = 0.411\nsamples = 45\nvalue = [13, 32]"] ;
5290 -> 5318 ;
5319 [label="gini = 0.0\nsamples = 6\nvalue = [0, 6]"] ;
5318 -> 5319 ;
5320 [label="no_of_employees <= 3064.0\ngini = 0.444\nsamples = 39\nvalue = [13, 26]"] ;
5318 -> 5320 ;
5321 [label="gini = 0.0\nsamples = 2\nvalue = [2, 0]"] ;
5320 -> 5321 ;
5322 [label="hourly_wages <= 28.755\ngini = 0.418\nsamples = 37\nvalue = [11, 26]"] ;
5320 -> 5322 ;
5323 [label="gini = 0.0\nsamples = 8\nvalue = [0, 8]"] ;
5322 -> 5323 ;
5324 [label="hourly_wages <= 40.771\ngini = 0.471\nsamples = 29\nvalue = [11, 18]"] ;
5322 -> 5324 ;
5325 [label="(...)"] ;
5324 -> 5325 ;
5328 [label="(...)"] ;
5324 -> 5328 ;
5347 [label="hourly_wages <= 2646.514\ngini = 0.01\nsamples = 818\nvalue = [4, 814]"] ;
5289 -> 5347 ;
5348 [label="requires_job_training <= 0.5\ngini = 0.007\nsamples = 816\nvalue = [3, 813]"] ;
5347 -> 5348 ;
5349 [label="gini = 0.0\nsamples = 786\nvalue = [0, 786]"] ;
5348 -> 5349 ;
5350 [label="no_of_employees <= 437.5\ngini = 0.18\nsamples = 30\nvalue = [3, 27]"] ;
5348 -> 5350 ;
5351 [label="hourly_wages <= 24.734\ngini = 0.444\nsamples = 3\nvalue = [2, 1]"] ;
5350 -> 5351 ;
5352 [label="gini = 0.0\nsamples = 1\nvalue = [0, 1]"] ;
5351 -> 5352 ;
5353 [label="gini = 0.0\nsamples = 2\nvalue = [2, 0]"] ;
5351 -> 5353 ;
5354 [label="yrs_since_estab <= 10.5\ngini = 0.071\nsamples = 27\nvalue = [1, 26]"] ;
5350 -> 5354 ;
5355 [label="hourly_wages <= 29.991\ngini = 0.32\nsamples = 5\nvalue = [1, 4]"] ;
5354 -> 5355 ;
5356 [label="(...)"] ;
5355 -> 5356 ;
5357 [label="(...)"] ;
5355 -> 5357 ;
5358 [label="gini = 0.0\nsamples = 22\nvalue = [0, 22]"] ;
5354 -> 5358 ;
5359 [label="hourly_wages <= 3679.82\ngini = 0.5\nsamples = 2\nvalue = [1, 1]"] ;
5347 -> 5359 ;
5360 [label="gini = 0.0\nsamples = 1\nvalue = [1, 0]"] ;
5359 -> 5360 ;
5361 [label="gini = 0.0\nsamples = 1\nvalue = [0, 1]"] ;
5359 -> 5361 ;
5362 [label="continent_North America <= 0.5\ngini = 0.434\nsamples = 207\nvalue = [66, 141]"] ;
4044 -> 5362 ;
5363 [label="hourly_wages <= 5.034\ngini = 0.384\nsamples = 158\nvalue = [41, 117]"] ;
5362 -> 5363 ;
5364 [label="gini = 0.0\nsamples = 1\nvalue = [1, 0]"] ;
5363 -> 5364 ;
5365 [label="no_of_employees <= 84.0\ngini = 0.38\nsamples = 157\nvalue = [40, 117]"] ;
5363 -> 5365 ;
5366 [label="gini = 0.0\nsamples = 1\nvalue = [1, 0]"] ;
5365 -> 5366 ;
5367 [label="no_of_employees <= 146.0\ngini = 0.375\nsamples = 156\nvalue = [39, 117]"] ;
5365 -> 5367 ;
5368 [label="gini = 0.0\nsamples = 7\nvalue = [0, 7]"] ;
5367 -> 5368 ;
5369 [label="no_of_employees <= 174.0\ngini = 0.386\nsamples = 149\nvalue = [39, 110]"] ;
5367 -> 5369 ;
5370 [label="gini = 0.0\nsamples = 1\nvalue = [1, 0]"] ;
5369 -> 5370 ;
5371 [label="no_of_employees <= 5679.0\ngini = 0.382\nsamples = 148\nvalue = [38, 110]"] ;
5369 -> 5371 ;
5372 [label="no_of_employees <= 4357.0\ngini = 0.394\nsamples = 141\nvalue = [38, 103]"] ;
5371 -> 5372 ;
5373 [label="(...)"] ;
5372 -> 5373 ;
5438 [label="(...)"] ;
5372 -> 5438 ;
5443 [label="gini = 0.0\nsamples = 7\nvalue = [0, 7]"] ;
5371 -> 5443 ;
5444 [label="hourly_wages <= 52.902\ngini = 0.5\nsamples = 49\nvalue = [25, 24]"] ;
5362 -> 5444 ;
5445 [label="gini = 0.0\nsamples = 3\nvalue = [0, 3]"] ;
5444 -> 5445 ;
5446 [label="no_of_employees <= 211.5\ngini = 0.496\nsamples = 46\nvalue = [25, 21]"] ;
5444 -> 5446 ;
5447 [label="gini = 0.0\nsamples = 3\nvalue = [3, 0]"] ;
5446 -> 5447 ;
5448 [label="hourly_wages <= 516.491\ngini = 0.5\nsamples = 43\nvalue = [22, 21]"] ;
5446 -> 5448 ;
5449 [label="yrs_since_estab <= 10.0\ngini = 0.485\nsamples = 29\nvalue = [12, 17]"] ;
5448 -> 5449 ;
5450 [label="gini = 0.0\nsamples = 4\nvalue = [0, 4]"] ;
5449 -> 5450 ;
5451 [label="hourly_wages <= 478.43\ngini = 0.499\nsamples = 25\nvalue = [12, 13]"] ;
5449 -> 5451 ;
5452 [label="no_of_employees <= 307.5\ngini = 0.496\nsamples = 22\nvalue = [12, 10]"] ;
5451 -> 5452 ;
5453 [label="(...)"] ;
5452 -> 5453 ;
5454 [label="(...)"] ;
5452 -> 5454 ;
5469 [label="gini = 0.0\nsamples = 3\nvalue = [0, 3]"] ;
5451 -> 5469 ;
5470 [label="hourly_wages <= 943.736\ngini = 0.408\nsamples = 14\nvalue = [10, 4]"] ;
5448 -> 5470 ;
5471 [label="no_of_employees <= 852.0\ngini = 0.278\nsamples = 12\nvalue = [10, 2]"] ;
5470 -> 5471 ;
5472 [label="gini = 0.0\nsamples = 1\nvalue = [0, 1]"] ;
5471 -> 5472 ;
5473 [label="no_of_employees <= 39743.5\ngini = 0.165\nsamples = 11\nvalue = [10, 1]"] ;
5471 -> 5473 ;
5474 [label="(...)"] ;
5473 -> 5474 ;
5475 [label="(...)"] ;
5473 -> 5475 ;
5478 [label="gini = 0.0\nsamples = 2\nvalue = [0, 2]"] ;
5470 -> 5478 ;
5479 [label="unit_of_wage_Hour <= 0.5\ngini = 0.416\nsamples = 4727\nvalue = [1396, 3331]"] ;
4043 -> 5479 ;
5480 [label="continent_Europe <= 0.5\ngini = 0.396\nsamples = 4440\nvalue = [1207, 3233]"] ;
5479 -> 5480 ;
5481 [label="region_of_employment_Midwest <= 0.5\ngini = 0.41\nsamples = 3850\nvalue = [1110, 2740]"] ;
5480 -> 5481 ;
5482 [label="continent_Asia <= 0.5\ngini = 0.419\nsamples = 3304\nvalue = [989, 2315]"] ;
5481 -> 5482 ;
5483 [label="hourly_wages <= 12.661\ngini = 0.454\nsamples = 622\nvalue = [217, 405]"] ;
5482 -> 5483 ;
5484 [label="yrs_since_estab <= 6.5\ngini = 0.34\nsamples = 83\nvalue = [18, 65]"] ;
5483 -> 5484 ;
5485 [label="no_of_employees <= 1725.0\ngini = 0.494\nsamples = 9\nvalue = [5, 4]"] ;
5484 -> 5485 ;
5486 [label="yrs_since_estab <= 5.5\ngini = 0.375\nsamples = 4\nvalue = [1, 3]"] ;
5485 -> 5486 ;
5487 [label="(...)"] ;
5486 -> 5487 ;
5488 [label="(...)"] ;
5486 -> 5488 ;
5489 [label="hourly_wages <= 6.218\ngini = 0.32\nsamples = 5\nvalue = [4, 1]"] ;
5485 -> 5489 ;
5490 [label="(...)"] ;
5489 -> 5490 ;
5491 [label="(...)"] ;
5489 -> 5491 ;
5492 [label="yrs_since_estab <= 196.5\ngini = 0.29\nsamples = 74\nvalue = [13, 61]"] ;
5484 -> 5492 ;
5493 [label="region_of_employment_Northeast <= 0.5\ngini = 0.275\nsamples = 73\nvalue = [12, 61]"] ;
5492 -> 5493 ;
5494 [label="(...)"] ;
5493 -> 5494 ;
5519 [label="(...)"] ;
5493 -> 5519 ;
5528 [label="gini = 0.0\nsamples = 1\nvalue = [1, 0]"] ;
5492 -> 5528 ;
5529 [label="no_of_employees <= 4560.0\ngini = 0.466\nsamples = 539\nvalue = [199, 340]"] ;
5483 -> 5529 ;
5530 [label="no_of_employees <= 2545.5\ngini = 0.453\nsamples = 453\nvalue = [157, 296]"] ;
5529 -> 5530 ;
5531 [label="no_of_employees <= 2058.5\ngini = 0.482\nsamples = 296\nvalue = [120, 176]"] ;
5530 -> 5531 ;
5532 [label="(...)"] ;
5531 -> 5532 ;
5687 [label="(...)"] ;
5531 -> 5687 ;
5720 [label="no_of_employees <= 3984.5\ngini = 0.36\nsamples = 157\nvalue = [37, 120]"] ;
5530 -> 5720 ;
5721 [label="(...)"] ;
5720 -> 5721 ;
5790 [label="(...)"] ;
5720 -> 5790 ;
5799 [label="no_of_employees <= 4840.0\ngini = 0.5\nsamples = 86\nvalue = [42, 44]"] ;
5529 -> 5799 ;
5800 [label="yrs_since_estab <= 24.5\ngini = 0.198\nsamples = 9\nvalue = [8, 1]"] ;
5799 -> 5800 ;
5801 [label="(...)"] ;
5800 -> 5801 ;
5802 [label="(...)"] ;
5800 -> 5802 ;
5805 [label="no_of_employees <= 4973.5\ngini = 0.493\nsamples = 77\nvalue = [34, 43]"] ;
5799 -> 5805 ;
5806 [label="(...)"] ;
5805 -> 5806 ;
5807 [label="(...)"] ;
5805 -> 5807 ;
5838 [label="no_of_employees <= 24.5\ngini = 0.41\nsamples = 2682\nvalue = [772, 1910]"] ;
5482 -> 5838 ;
5839 [label="gini = 0.0\nsamples = 4\nvalue = [4, 0]"] ;
5838 -> 5839 ;
5840 [label="hourly_wages <= 1.069\ngini = 0.409\nsamples = 2678\nvalue = [768, 1910]"] ;
5838 -> 5840 ;
5841 [label="yrs_since_estab <= 8.5\ngini = 0.49\nsamples = 21\nvalue = [12, 9]"] ;
5840 -> 5841 ;
5842 [label="gini = 0.0\nsamples = 6\nvalue = [0, 6]"] ;
5841 -> 5842 ;
5843 [label="no_of_employees <= 2410.0\ngini = 0.32\nsamples = 15\nvalue = [12, 3]"] ;
5841 -> 5843 ;
5844 [label="(...)"] ;
5843 -> 5844 ;
5847 [label="(...)"] ;
5843 -> 5847 ;
5848 [label="no_of_employees <= 2430.5\ngini = 0.407\nsamples = 2657\nvalue = [756, 1901]"] ;
5840 -> 5848 ;
5849 [label="hourly_wages <= 1317.088\ngini = 0.423\nsamples = 1489\nvalue = [453, 1036]"] ;
5848 -> 5849 ;
5850 [label="(...)"] ;
5849 -> 5850 ;
6695 [label="(...)"] ;
5849 -> 6695 ;
6706 [label="no_of_employees <= 102060.5\ngini = 0.384\nsamples = 1168\nvalue = [303, 865]"] ;
5848 -> 6706 ;
6707 [label="(...)"] ;
6706 -> 6707 ;
7326 [label="(...)"] ;
6706 -> 7326 ;
7339 [label="hourly_wages <= 515.151\ngini = 0.345\nsamples = 546\nvalue = [121, 425]"] ;
5481 -> 7339 ;
7340 [label="no_of_employees <= 51.5\ngini = 0.338\nsamples = 539\nvalue = [116, 423]"] ;
7339 -> 7340 ;
7341 [label="gini = 0.0\nsamples = 2\nvalue = [2, 0]"] ;
7340 -> 7341 ;
7342 [label="hourly_wages <= 71.2\ngini = 0.334\nsamples = 537\nvalue = [114, 423]"] ;
7340 -> 7342 ;
7343 [label="hourly_wages <= 69.493\ngini = 0.35\nsamples = 477\nvalue = [108, 369]"] ;
7342 -> 7343 ;
7344 [label="yrs_since_estab <= 4.5\ngini = 0.345\nsamples = 469\nvalue = [104, 365]"] ;
7343 -> 7344 ;
7345 [label="(...)"] ;
7344 -> 7345 ;
7358 [label="(...)"] ;
7344 -> 7358 ;
7587 [label="hourly_wages <= 69.73\ngini = 0.5\nsamples = 8\nvalue = [4, 4]"] ;
7343 -> 7587 ;
7588 [label="(...)"] ;
7587 -> 7588 ;
7589 [label="(...)"] ;
7587 -> 7589 ;
7592 [label="no_of_employees <= 120486.0\ngini = 0.18\nsamples = 60\nvalue = [6, 54]"] ;
7342 -> 7592 ;
7593 [label="unit_of_wage_Week <= 0.5\ngini = 0.155\nsamples = 59\nvalue = [5, 54]"] ;
7592 -> 7593 ;
7594 [label="(...)"] ;
7593 -> 7594 ;
7611 [label="(...)"] ;
7593 -> 7611 ;
7614 [label="gini = 0.0\nsamples = 1\nvalue = [1, 0]"] ;
7592 -> 7614 ;
7615 [label="no_of_employees <= 1027.0\ngini = 0.408\nsamples = 7\nvalue = [5, 2]"] ;
7339 -> 7615 ;
7616 [label="unit_of_wage_Week <= 0.5\ngini = 0.444\nsamples = 3\nvalue = [1, 2]"] ;
7615 -> 7616 ;
7617 [label="gini = 0.0\nsamples = 1\nvalue = [1, 0]"] ;
7616 -> 7617 ;
7618 [label="gini = 0.0\nsamples = 2\nvalue = [0, 2]"] ;
7616 -> 7618 ;
7619 [label="gini = 0.0\nsamples = 4\nvalue = [4, 0]"] ;
7615 -> 7619 ;
7620 [label="hourly_wages <= 76.289\ngini = 0.275\nsamples = 590\nvalue = [97, 493]"] ;
5480 -> 7620 ;
7621 [label="yrs_since_estab <= 178.5\ngini = 0.258\nsamples = 566\nvalue = [86, 480]"] ;
7620 -> 7621 ;
7622 [label="no_of_employees <= 4729.5\ngini = 0.251\nsamples = 558\nvalue = [82, 476]"] ;
7621 -> 7622 ;
7623 [label="no_of_employees <= 4672.0\ngini = 0.272\nsamples = 487\nvalue = [79, 408]"] ;
7622 -> 7623 ;
7624 [label="hourly_wages <= 5.223\ngini = 0.267\nsamples = 485\nvalue = [77, 408]"] ;
7623 -> 7624 ;
7625 [label="hourly_wages <= 3.354\ngini = 0.14\nsamples = 53\nvalue = [4, 49]"] ;
7624 -> 7625 ;
7626 [label="(...)"] ;
7625 -> 7626 ;
7635 [label="(...)"] ;
7625 -> 7635 ;
7636 [label="hourly_wages <= 5.322\ngini = 0.281\nsamples = 432\nvalue = [73, 359]"] ;
7624 -> 7636 ;
7637 [label="(...)"] ;
7636 -> 7637 ;
7638 [label="(...)"] ;
7636 -> 7638 ;
7839 [label="gini = 0.0\nsamples = 2\nvalue = [2, 0]"] ;
7623 -> 7839 ;
7840 [label="no_of_employees <= 284933.0\ngini = 0.081\nsamples = 71\nvalue = [3, 68]"] ;
7622 -> 7840 ;
7841 [label="yrs_since_estab <= 6.5\ngini = 0.056\nsamples = 70\nvalue = [2, 68]"] ;
7840 -> 7841 ;
7842 [label="region_of_employment_South <= 0.5\ngini = 0.444\nsamples = 3\nvalue = [1, 2]"] ;
7841 -> 7842 ;
7843 [label="(...)"] ;
7842 -> 7843 ;
7844 [label="(...)"] ;
7842 -> 7844 ;
7845 [label="hourly_wages <= 39.444\ngini = 0.029\nsamples = 67\nvalue = [1, 66]"] ;
7841 -> 7845 ;
7846 [label="(...)"] ;
7845 -> 7846 ;
7847 [label="(...)"] ;
7845 -> 7847 ;
7850 [label="gini = 0.0\nsamples = 1\nvalue = [1, 0]"] ;
7840 -> 7850 ;
7851 [label="yrs_since_estab <= 196.0\ngini = 0.5\nsamples = 8\nvalue = [4, 4]"] ;
7621 -> 7851 ;
7852 [label="gini = 0.0\nsamples = 4\nvalue = [4, 0]"] ;
7851 -> 7852 ;
7853 [label="gini = 0.0\nsamples = 4\nvalue = [0, 4]"] ;
7851 -> 7853 ;
7854 [label="hourly_wages <= 104.251\ngini = 0.497\nsamples = 24\nvalue = [11, 13]"] ;
7620 -> 7854 ;
7855 [label="region_of_employment_South <= 0.5\ngini = 0.426\nsamples = 13\nvalue = [9, 4]"] ;
7854 -> 7855 ;
7856 [label="requires_job_training <= 0.5\ngini = 0.198\nsamples = 9\nvalue = [8, 1]"] ;
7855 -> 7856 ;
7857 [label="gini = 0.0\nsamples = 7\nvalue = [7, 0]"] ;
7856 -> 7857 ;
7858 [label="hourly_wages <= 92.128\ngini = 0.5\nsamples = 2\nvalue = [1, 1]"] ;
7856 -> 7858 ;
7859 [label="gini = 0.0\nsamples = 1\nvalue = [0, 1]"] ;
7858 -> 7859 ;
7860 [label="gini = 0.0\nsamples = 1\nvalue = [1, 0]"] ;
7858 -> 7860 ;
7861 [label="hourly_wages <= 79.607\ngini = 0.375\nsamples = 4\nvalue = [1, 3]"] ;
7855 -> 7861 ;
7862 [label="gini = 0.0\nsamples = 1\nvalue = [1, 0]"] ;
7861 -> 7862 ;
7863 [label="gini = 0.0\nsamples = 3\nvalue = [0, 3]"] ;
7861 -> 7863 ;
7864 [label="region_of_employment_Island <= 0.5\ngini = 0.298\nsamples = 11\nvalue = [2, 9]"] ;
7854 -> 7864 ;
7865 [label="full_time_position <= 0.5\ngini = 0.18\nsamples = 10\nvalue = [1, 9]"] ;
7864 -> 7865 ;
7866 [label="no_of_employees <= 553.5\ngini = 0.5\nsamples = 2\nvalue = [1, 1]"] ;
7865 -> 7866 ;
7867 [label="gini = 0.0\nsamples = 1\nvalue = [0, 1]"] ;
7866 -> 7867 ;
7868 [label="gini = 0.0\nsamples = 1\nvalue = [1, 0]"] ;
7866 -> 7868 ;
7869 [label="gini = 0.0\nsamples = 8\nvalue = [0, 8]"] ;
7865 -> 7869 ;
7870 [label="gini = 0.0\nsamples = 1\nvalue = [1, 0]"] ;
7864 -> 7870 ;
7871 [label="no_of_employees <= 1469.5\ngini = 0.45\nsamples = 287\nvalue = [189, 98]"] ;
5479 -> 7871 ;
7872 [label="hourly_wages <= 117.215\ngini = 0.383\nsamples = 120\nvalue = [89, 31]"] ;
7871 -> 7872 ;
7873 [label="gini = 0.0\nsamples = 13\nvalue = [13, 0]"] ;
7872 -> 7873 ;
7874 [label="hourly_wages <= 122.119\ngini = 0.412\nsamples = 107\nvalue = [76, 31]"] ;
7872 -> 7874 ;
7875 [label="gini = 0.0\nsamples = 2\nvalue = [0, 2]"] ;
7874 -> 7875 ;
7876 [label="no_of_employees <= 824.5\ngini = 0.4\nsamples = 105\nvalue = [76, 29]"] ;
7874 -> 7876 ;
7877 [label="yrs_since_estab <= 101.0\ngini = 0.458\nsamples = 59\nvalue = [38, 21]"] ;
7876 -> 7877 ;
7878 [label="region_of_employment_Midwest <= 0.5\ngini = 0.484\nsamples = 51\nvalue = [30, 21]"] ;
7877 -> 7878 ;
7879 [label="yrs_since_estab <= 3.5\ngini = 0.475\nsamples = 49\nvalue = [30, 19]"] ;
7878 -> 7879 ;
7880 [label="(...)"] ;
7879 -> 7880 ;
7881 [label="(...)"] ;
7879 -> 7881 ;
7918 [label="gini = 0.0\nsamples = 2\nvalue = [0, 2]"] ;
7878 -> 7918 ;
7919 [label="gini = 0.0\nsamples = 8\nvalue = [8, 0]"] ;
7877 -> 7919 ;
7920 [label="hourly_wages <= 366.23\ngini = 0.287\nsamples = 46\nvalue = [38, 8]"] ;
7876 -> 7920 ;
7921 [label="hourly_wages <= 270.119\ngini = 0.415\nsamples = 17\nvalue = [12, 5]"] ;
7920 -> 7921 ;
7922 [label="region_of_employment_South <= 0.5\ngini = 0.165\nsamples = 11\nvalue = [10, 1]"] ;
7921 -> 7922 ;
7923 [label="(...)"] ;
7922 -> 7923 ;
7924 [label="(...)"] ;
7922 -> 7924 ;
7927 [label="continent_Asia <= 0.5\ngini = 0.444\nsamples = 6\nvalue = [2, 4]"] ;
7921 -> 7927 ;
7928 [label="(...)"] ;
7927 -> 7928 ;
7931 [label="(...)"] ;
7927 -> 7931 ;
7932 [label="yrs_since_estab <= 79.0\ngini = 0.185\nsamples = 29\nvalue = [26, 3]"] ;
7920 -> 7932 ;
7933 [label="hourly_wages <= 555.469\ngini = 0.133\nsamples = 28\nvalue = [26, 2]"] ;
7932 -> 7933 ;
7934 [label="(...)"] ;
7933 -> 7934 ;
7935 [label="(...)"] ;
7933 -> 7935 ;
7942 [label="gini = 0.0\nsamples = 1\nvalue = [0, 1]"] ;
7932 -> 7942 ;
7943 [label="no_of_employees <= 2169.0\ngini = 0.48\nsamples = 167\nvalue = [100, 67]"] ;
7871 -> 7943 ;
7944 [label="no_of_employees <= 2067.0\ngini = 0.498\nsamples = 58\nvalue = [27, 31]"] ;
7943 -> 7944 ;
7945 [label="no_of_employees <= 1710.5\ngini = 0.498\nsamples = 51\nvalue = [27, 24]"] ;
7944 -> 7945 ;
7946 [label="region_of_employment_Midwest <= 0.5\ngini = 0.463\nsamples = 22\nvalue = [8, 14]"] ;
7945 -> 7946 ;
7947 [label="yrs_since_estab <= 14.0\ngini = 0.388\nsamples = 19\nvalue = [5, 14]"] ;
7946 -> 7947 ;
7948 [label="no_of_employees <= 1605.5\ngini = 0.375\nsamples = 4\nvalue = [3, 1]"] ;
7947 -> 7948 ;
7949 [label="(...)"] ;
7948 -> 7949 ;
7950 [label="(...)"] ;
7948 -> 7950 ;
7951 [label="hourly_wages <= 159.717\ngini = 0.231\nsamples = 15\nvalue = [2, 13]"] ;
7947 -> 7951 ;
7952 [label="(...)"] ;
7951 -> 7952 ;
7955 [label="(...)"] ;
7951 -> 7955 ;
7962 [label="gini = 0.0\nsamples = 3\nvalue = [3, 0]"] ;
7946 -> 7962 ;
7963 [label="continent_North America <= 0.5\ngini = 0.452\nsamples = 29\nvalue = [19, 10]"] ;
7945 -> 7963 ;
7964 [label="yrs_since_estab <= 134.5\ngini = 0.499\nsamples = 21\nvalue = [11, 10]"] ;
7963 -> 7964 ;
7965 [label="no_of_employees <= 1929.5\ngini = 0.494\nsamples = 18\nvalue = [8, 10]"] ;
7964 -> 7965 ;
7966 [label="(...)"] ;
7965 -> 7966 ;
7975 [label="(...)"] ;
7965 -> 7975 ;
7978 [label="gini = 0.0\nsamples = 3\nvalue = [3, 0]"] ;
7964 -> 7978 ;
7979 [label="gini = 0.0\nsamples = 8\nvalue = [8, 0]"] ;
7963 -> 7979 ;
7980 [label="gini = 0.0\nsamples = 7\nvalue = [0, 7]"] ;
7944 -> 7980 ;
7981 [label="hourly_wages <= 45.268\ngini = 0.442\nsamples = 109\nvalue = [73, 36]"] ;
7943 -> 7981 ;
7982 [label="gini = 0.0\nsamples = 3\nvalue = [0, 3]"] ;
7981 -> 7982 ;
7983 [label="hourly_wages <= 941.555\ngini = 0.429\nsamples = 106\nvalue = [73, 33]"] ;
7981 -> 7983 ;
7984 [label="hourly_wages <= 182.232\ngini = 0.418\nsamples = 104\nvalue = [73, 31]"] ;
7983 -> 7984 ;
7985 [label="hourly_wages <= 101.935\ngini = 0.497\nsamples = 26\nvalue = [14, 12]"] ;
7984 -> 7985 ;
7986 [label="no_of_employees <= 2984.5\ngini = 0.375\nsamples = 12\nvalue = [9, 3]"] ;
7985 -> 7986 ;
7987 [label="(...)"] ;
7986 -> 7987 ;
7988 [label="(...)"] ;
7986 -> 7988 ;
7991 [label="no_of_employees <= 4689.0\ngini = 0.459\nsamples = 14\nvalue = [5, 9]"] ;
7985 -> 7991 ;
7992 [label="(...)"] ;
7991 -> 7992 ;
8001 [label="(...)"] ;
7991 -> 8001 ;
8002 [label="no_of_employees <= 9083.0\ngini = 0.369\nsamples = 78\nvalue = [59, 19]"] ;
7984 -> 8002 ;
8003 [label="yrs_since_estab <= 5.5\ngini = 0.337\nsamples = 70\nvalue = [55, 15]"] ;
8002 -> 8003 ;
8004 [label="(...)"] ;
8003 -> 8004 ;
8007 [label="(...)"] ;
8003 -> 8007 ;
8042 [label="continent_Asia <= 0.5\ngini = 0.5\nsamples = 8\nvalue = [4, 4]"] ;
8002 -> 8042 ;
8043 [label="(...)"] ;
8042 -> 8043 ;
8044 [label="(...)"] ;
8042 -> 8044 ;
8049 [label="gini = 0.0\nsamples = 2\nvalue = [0, 2]"] ;
7983 -> 8049 ;
8050 [label="continent_Asia <= 0.5\ngini = 0.45\nsamples = 2767\nvalue = [1820, 947]"] ;
0 -> 8050 [labeldistance=2.5, labelangle=-45, headlabel="False"] ;
8051 [label="continent_Europe <= 0.5\ngini = 0.495\nsamples = 897\nvalue = [494, 403]"] ;
8050 -> 8051 ;
8052 [label="has_job_experience <= 0.5\ngini = 0.498\nsamples = 504\nvalue = [236, 268]"] ;
8051 -> 8052 ;
8053 [label="yrs_since_estab <= 131.5\ngini = 0.476\nsamples = 202\nvalue = [123, 79]"] ;
8052 -> 8053 ;
8054 [label="no_of_employees <= 2883.5\ngini = 0.46\nsamples = 184\nvalue = [118, 66]"] ;
8053 -> 8054 ;
8055 [label="no_of_employees <= 1346.0\ngini = 0.424\nsamples = 131\nvalue = [91, 40]"] ;
8054 -> 8055 ;
8056 [label="no_of_employees <= 1173.0\ngini = 0.49\nsamples = 63\nvalue = [36, 27]"] ;
8055 -> 8056 ;
8057 [label="hourly_wages <= 24.371\ngini = 0.474\nsamples = 57\nvalue = [35, 22]"] ;
8056 -> 8057 ;
8058 [label="gini = 0.0\nsamples = 6\nvalue = [6, 0]"] ;
8057 -> 8058 ;
8059 [label="full_time_position <= 0.5\ngini = 0.491\nsamples = 51\nvalue = [29, 22]"] ;
8057 -> 8059 ;
8060 [label="gini = 0.0\nsamples = 5\nvalue = [5, 0]"] ;
8059 -> 8060 ;
8061 [label="no_of_employees <= 1010.5\ngini = 0.499\nsamples = 46\nvalue = [24, 22]"] ;
8059 -> 8061 ;
8062 [label="(...)"] ;
8061 -> 8062 ;
8091 [label="(...)"] ;
8061 -> 8091 ;
8096 [label="unit_of_wage_Hour <= 0.5\ngini = 0.278\nsamples = 6\nvalue = [1, 5]"] ;
8056 -> 8096 ;
8097 [label="gini = 0.0\nsamples = 5\nvalue = [0, 5]"] ;
8096 -> 8097 ;
8098 [label="gini = 0.0\nsamples = 1\nvalue = [1, 0]"] ;
8096 -> 8098 ;
8099 [label="continent_North America <= 0.5\ngini = 0.309\nsamples = 68\nvalue = [55, 13]"] ;
8055 -> 8099 ;
8100 [label="continent_Africa <= 0.5\ngini = 0.454\nsamples = 23\nvalue = [15, 8]"] ;
8099 -> 8100 ;
8101 [label="region_of_employment_Northeast <= 0.5\ngini = 0.494\nsamples = 18\nvalue = [10, 8]"] ;
8100 -> 8101 ;
8102 [label="yrs_since_estab <= 24.5\ngini = 0.463\nsamples = 11\nvalue = [4, 7]"] ;
8101 -> 8102 ;
8103 [label="(...)"] ;
8102 -> 8103 ;
8108 [label="(...)"] ;
8102 -> 8108 ;
8109 [label="hourly_wages <= 96.764\ngini = 0.245\nsamples = 7\nvalue = [6, 1]"] ;
8101 -> 8109 ;
8110 [label="(...)"] ;
8109 -> 8110 ;
8111 [label="(...)"] ;
8109 -> 8111 ;
8114 [label="gini = 0.0\nsamples = 5\nvalue = [5, 0]"] ;
8100 -> 8114 ;
8115 [label="yrs_since_estab <= 24.5\ngini = 0.198\nsamples = 45\nvalue = [40, 5]"] ;
8099 -> 8115 ;
8116 [label="yrs_since_estab <= 5.5\ngini = 0.056\nsamples = 35\nvalue = [34, 1]"] ;
8115 -> 8116 ;
8117 [label="no_of_employees <= 2344.0\ngini = 0.278\nsamples = 6\nvalue = [5, 1]"] ;
8116 -> 8117 ;
8118 [label="(...)"] ;
8117 -> 8118 ;
8119 [label="(...)"] ;
8117 -> 8119 ;
8122 [label="gini = 0.0\nsamples = 29\nvalue = [29, 0]"] ;
8116 -> 8122 ;
8123 [label="region_of_employment_South <= 0.5\ngini = 0.48\nsamples = 10\nvalue = [6, 4]"] ;
8115 -> 8123 ;
8124 [label="unit_of_wage_Hour <= 0.5\ngini = 0.245\nsamples = 7\nvalue = [6, 1]"] ;
8123 -> 8124 ;
8125 [label="(...)"] ;
8124 -> 8125 ;
8126 [label="(...)"] ;
8124 -> 8126 ;
8129 [label="gini = 0.0\nsamples = 3\nvalue = [0, 3]"] ;
8123 -> 8129 ;
8130 [label="no_of_employees <= 3337.0\ngini = 0.5\nsamples = 53\nvalue = [27, 26]"] ;
8054 -> 8130 ;
8131 [label="hourly_wages <= 54.571\ngini = 0.346\nsamples = 9\nvalue = [2, 7]"] ;
8130 -> 8131 ;
8132 [label="gini = 0.0\nsamples = 5\nvalue = [0, 5]"] ;
8131 -> 8132 ;
8133 [label="hourly_wages <= 63.147\ngini = 0.5\nsamples = 4\nvalue = [2, 2]"] ;
8131 -> 8133 ;
8134 [label="gini = 0.0\nsamples = 2\nvalue = [2, 0]"] ;
8133 -> 8134 ;
8135 [label="gini = 0.0\nsamples = 2\nvalue = [0, 2]"] ;
8133 -> 8135 ;
8136 [label="yrs_since_estab <= 11.5\ngini = 0.491\nsamples = 44\nvalue = [25, 19]"] ;
8130 -> 8136 ;
8137 [label="no_of_employees <= 4627.0\ngini = 0.32\nsamples = 10\nvalue = [8, 2]"] ;
8136 -> 8137 ;
8138 [label="hourly_wages <= 77.478\ngini = 0.48\nsamples = 5\nvalue = [3, 2]"] ;
8137 -> 8138 ;
8139 [label="yrs_since_estab <= 10.5\ngini = 0.444\nsamples = 3\nvalue = [1, 2]"] ;
8138 -> 8139 ;
8140 [label="(...)"] ;
8139 -> 8140 ;
8141 [label="(...)"] ;
8139 -> 8141 ;
8142 [label="gini = 0.0\nsamples = 2\nvalue = [2, 0]"] ;
8138 -> 8142 ;
8143 [label="gini = 0.0\nsamples = 5\nvalue = [5, 0]"] ;
8137 -> 8143 ;
8144 [label="hourly_wages <= 68.095\ngini = 0.5\nsamples = 34\nvalue = [17, 17]"] ;
8136 -> 8144 ;
8145 [label="yrs_since_estab <= 18.5\ngini = 0.485\nsamples = 29\nvalue = [17, 12]"] ;
8144 -> 8145 ;
8146 [label="hourly_wages <= 52.125\ngini = 0.278\nsamples = 6\nvalue = [1, 5]"] ;
8145 -> 8146 ;
8147 [label="(...)"] ;
8146 -> 8147 ;
8148 [label="(...)"] ;
8146 -> 8148 ;
8149 [label="no_of_employees <= 3847.0\ngini = 0.423\nsamples = 23\nvalue = [16, 7]"] ;
8145 -> 8149 ;
8150 [label="(...)"] ;
8149 -> 8150 ;
8151 [label="(...)"] ;
8149 -> 8151 ;
8162 [label="gini = 0.0\nsamples = 5\nvalue = [0, 5]"] ;
8144 -> 8162 ;
8163 [label="no_of_employees <= 3834.5\ngini = 0.401\nsamples = 18\nvalue = [5, 13]"] ;
8053 -> 8163 ;
8164 [label="hourly_wages <= 7.978\ngini = 0.305\nsamples = 16\nvalue = [3, 13]"] ;
8163 -> 8164 ;
8165 [label="gini = 0.0\nsamples = 1\nvalue = [1, 0]"] ;
8164 -> 8165 ;
8166 [label="region_of_employment_South <= 0.5\ngini = 0.231\nsamples = 15\nvalue = [2, 13]"] ;
8164 -> 8166 ;
8167 [label="requires_job_training <= 0.5\ngini = 0.142\nsamples = 13\nvalue = [1, 12]"] ;
8166 -> 8167 ;
8168 [label="gini = 0.0\nsamples = 9\nvalue = [0, 9]"] ;
8167 -> 8168 ;
8169 [label="yrs_since_estab <= 163.5\ngini = 0.375\nsamples = 4\nvalue = [1, 3]"] ;
8167 -> 8169 ;
8170 [label="yrs_since_estab <= 147.5\ngini = 0.5\nsamples = 2\nvalue = [1, 1]"] ;
8169 -> 8170 ;
8171 [label="(...)"] ;
8170 -> 8171 ;
8172 [label="(...)"] ;
8170 -> 8172 ;
8173 [label="gini = 0.0\nsamples = 2\nvalue = [0, 2]"] ;
8169 -> 8173 ;
8174 [label="no_of_employees <= 2556.0\ngini = 0.5\nsamples = 2\nvalue = [1, 1]"] ;
8166 -> 8174 ;
8175 [label="gini = 0.0\nsamples = 1\nvalue = [1, 0]"] ;
8174 -> 8175 ;
8176 [label="gini = 0.0\nsamples = 1\nvalue = [0, 1]"] ;
8174 -> 8176 ;
8177 [label="gini = 0.0\nsamples = 2\nvalue = [2, 0]"] ;
8163 -> 8177 ;
8178 [label="continent_Africa <= 0.5\ngini = 0.468\nsamples = 302\nvalue = [113, 189]"] ;
8052 -> 8178 ;
8179 [label="unit_of_wage_Hour <= 0.5\ngini = 0.448\nsamples = 271\nvalue = [92, 179]"] ;
8178 -> 8179 ;
8180 [label="hourly_wages <= 4.812\ngini = 0.422\nsamples = 228\nvalue = [69, 159]"] ;
8179 -> 8180 ;
8181 [label="gini = 0.0\nsamples = 13\nvalue = [0, 13]"] ;
8180 -> 8181 ;
8182 [label="continent_North America <= 0.5\ngini = 0.436\nsamples = 215\nvalue = [69, 146]"] ;
8180 -> 8182 ;
8183 [label="hourly_wages <= 18.865\ngini = 0.482\nsamples = 74\nvalue = [30, 44]"] ;
8182 -> 8183 ;
8184 [label="continent_Oceania <= 0.5\ngini = 0.472\nsamples = 21\nvalue = [13, 8]"] ;
8183 -> 8184 ;
8185 [label="yrs_since_estab <= 45.0\ngini = 0.375\nsamples = 16\nvalue = [12, 4]"] ;
8184 -> 8185 ;
8186 [label="(...)"] ;
8185 -> 8186 ;
8193 [label="(...)"] ;
8185 -> 8193 ;
8196 [label="region_of_employment_South <= 0.5\ngini = 0.32\nsamples = 5\nvalue = [1, 4]"] ;
8184 -> 8196 ;
8197 [label="(...)"] ;
8196 -> 8197 ;
8198 [label="(...)"] ;
8196 -> 8198 ;
8199 [label="no_of_employees <= 228.0\ngini = 0.436\nsamples = 53\nvalue = [17, 36]"] ;
8183 -> 8199 ;
8200 [label="gini = 0.0\nsamples = 2\nvalue = [2, 0]"] ;
8199 -> 8200 ;
8201 [label="no_of_employees <= 1555.0\ngini = 0.415\nsamples = 51\nvalue = [15, 36]"] ;
8199 -> 8201 ;
8202 [label="(...)"] ;
8201 -> 8202 ;
8207 [label="(...)"] ;
8201 -> 8207 ;
8228 [label="yrs_since_estab <= 159.5\ngini = 0.4\nsamples = 141\nvalue = [39, 102]"] ;
8182 -> 8228 ;
8229 [label="hourly_wages <= 21.152\ngini = 0.384\nsamples = 135\nvalue = [35, 100]"] ;
8228 -> 8229 ;
8230 [label="no_of_employees <= 14125.0\ngini = 0.251\nsamples = 34\nvalue = [5, 29]"] ;
8229 -> 8230 ;
8231 [label="(...)"] ;
8230 -> 8231 ;
8244 [label="(...)"] ;
8230 -> 8244 ;
8245 [label="hourly_wages <= 22.924\ngini = 0.418\nsamples = 101\nvalue = [30, 71]"] ;
8229 -> 8245 ;
8246 [label="(...)"] ;
8245 -> 8246 ;
8249 [label="(...)"] ;
8245 -> 8249 ;
8306 [label="no_of_employees <= 2737.5\ngini = 0.444\nsamples = 6\nvalue = [4, 2]"] ;
8228 -> 8306 ;
8307 [label="gini = 0.0\nsamples = 4\nvalue = [4, 0]"] ;
8306 -> 8307 ;
8308 [label="gini = 0.0\nsamples = 2\nvalue = [0, 2]"] ;
8306 -> 8308 ;
8309 [label="no_of_employees <= 3195.5\ngini = 0.498\nsamples = 43\nvalue = [23, 20]"] ;
8179 -> 8309 ;
8310 [label="no_of_employees <= 1952.5\ngini = 0.467\nsamples = 35\nvalue = [22, 13]"] ;
8309 -> 8310 ;
8311 [label="no_of_employees <= 1735.0\ngini = 0.499\nsamples = 25\nvalue = [13, 12]"] ;
8310 -> 8311 ;
8312 [label="no_of_employees <= 1498.0\ngini = 0.483\nsamples = 22\nvalue = [13, 9]"] ;
8311 -> 8312 ;
8313 [label="hourly_wages <= 787.164\ngini = 0.5\nsamples = 18\nvalue = [9, 9]"] ;
8312 -> 8313 ;
8314 [label="(...)"] ;
8313 -> 8314 ;
8323 [label="(...)"] ;
8313 -> 8323 ;
8324 [label="gini = 0.0\nsamples = 4\nvalue = [4, 0]"] ;
8312 -> 8324 ;
8325 [label="gini = 0.0\nsamples = 3\nvalue = [0, 3]"] ;
8311 -> 8325 ;
8326 [label="continent_North America <= 0.5\ngini = 0.18\nsamples = 10\nvalue = [9, 1]"] ;
8310 -> 8326 ;
8327 [label="region_of_employment_Northeast <= 0.5\ngini = 0.5\nsamples = 2\nvalue = [1, 1]"] ;
8326 -> 8327 ;
8328 [label="gini = 0.0\nsamples = 1\nvalue = [0, 1]"] ;
8327 -> 8328 ;
8329 [label="gini = 0.0\nsamples = 1\nvalue = [1, 0]"] ;
8327 -> 8329 ;
8330 [label="gini = 0.0\nsamples = 8\nvalue = [8, 0]"] ;
8326 -> 8330 ;
8331 [label="hourly_wages <= 97.608\ngini = 0.219\nsamples = 8\nvalue = [1, 7]"] ;
8309 -> 8331 ;
8332 [label="gini = 0.0\nsamples = 1\nvalue = [1, 0]"] ;
8331 -> 8332 ;
8333 [label="gini = 0.0\nsamples = 7\nvalue = [0, 7]"] ;
8331 -> 8333 ;
8334 [label="no_of_employees <= 5705.0\ngini = 0.437\nsamples = 31\nvalue = [21, 10]"] ;
8178 -> 8334 ;
8335 [label="hourly_wages <= 19.403\ngini = 0.4\nsamples = 29\nvalue = [21, 8]"] ;
8334 -> 8335 ;
8336 [label="region_of_employment_Northeast <= 0.5\ngini = 0.444\nsamples = 6\nvalue = [2, 4]"] ;
8335 -> 8336 ;
8337 [label="gini = 0.0\nsamples = 4\nvalue = [0, 4]"] ;
8336 -> 8337 ;
8338 [label="gini = 0.0\nsamples = 2\nvalue = [2, 0]"] ;
8336 -> 8338 ;
8339 [label="region_of_employment_Northeast <= 0.5\ngini = 0.287\nsamples = 23\nvalue = [19, 4]"] ;
8335 -> 8339 ;
8340 [label="no_of_employees <= 461.0\ngini = 0.124\nsamples = 15\nvalue = [14, 1]"] ;
8339 -> 8340 ;
8341 [label="region_of_employment_Midwest <= 0.5\ngini = 0.444\nsamples = 3\nvalue = [2, 1]"] ;
8340 -> 8341 ;
8342 [label="gini = 0.0\nsamples = 2\nvalue = [2, 0]"] ;
8341 -> 8342 ;
8343 [label="gini = 0.0\nsamples = 1\nvalue = [0, 1]"] ;
8341 -> 8343 ;
8344 [label="gini = 0.0\nsamples = 12\nvalue = [12, 0]"] ;
8340 -> 8344 ;
8345 [label="hourly_wages <= 53.093\ngini = 0.469\nsamples = 8\nvalue = [5, 3]"] ;
8339 -> 8345 ;
8346 [label="hourly_wages <= 34.744\ngini = 0.278\nsamples = 6\nvalue = [5, 1]"] ;
8345 -> 8346 ;
8347 [label="gini = 0.0\nsamples = 3\nvalue = [3, 0]"] ;
8346 -> 8347 ;
8348 [label="hourly_wages <= 43.009\ngini = 0.444\nsamples = 3\nvalue = [2, 1]"] ;
8346 -> 8348 ;
8349 [label="(...)"] ;
8348 -> 8349 ;
8350 [label="(...)"] ;
8348 -> 8350 ;
8351 [label="gini = 0.0\nsamples = 2\nvalue = [0, 2]"] ;
8345 -> 8351 ;
8352 [label="gini = 0.0\nsamples = 2\nvalue = [0, 2]"] ;
8334 -> 8352 ;
8353 [label="no_of_employees <= 62.0\ngini = 0.451\nsamples = 393\nvalue = [258, 135]"] ;
8051 -> 8353 ;
8354 [label="gini = 0.0\nsamples = 6\nvalue = [0, 6]"] ;
8353 -> 8354 ;
8355 [label="yrs_since_estab <= 9.5\ngini = 0.444\nsamples = 387\nvalue = [258, 129]"] ;
8353 -> 8355 ;
8356 [label="no_of_employees <= 3468.0\ngini = 0.317\nsamples = 71\nvalue = [57, 14]"] ;
8355 -> 8356 ;
8357 [label="region_of_employment_Midwest <= 0.5\ngini = 0.204\nsamples = 52\nvalue = [46, 6]"] ;
8356 -> 8357 ;
8358 [label="region_of_employment_Island <= 0.5\ngini = 0.15\nsamples = 49\nvalue = [45, 4]"] ;
8357 -> 8358 ;
8359 [label="no_of_employees <= 1189.0\ngini = 0.12\nsamples = 47\nvalue = [44, 3]"] ;
8358 -> 8359 ;
8360 [label="no_of_employees <= 1110.5\ngini = 0.236\nsamples = 22\nvalue = [19, 3]"] ;
8359 -> 8360 ;
8361 [label="no_of_employees <= 900.5\ngini = 0.095\nsamples = 20\nvalue = [19, 1]"] ;
8360 -> 8361 ;
8362 [label="(...)"] ;
8361 -> 8362 ;
8363 [label="(...)"] ;
8361 -> 8363 ;
8366 [label="gini = 0.0\nsamples = 2\nvalue = [0, 2]"] ;
8360 -> 8366 ;
8367 [label="gini = 0.0\nsamples = 25\nvalue = [25, 0]"] ;
8359 -> 8367 ;
8368 [label="hourly_wages <= 23.137\ngini = 0.5\nsamples = 2\nvalue = [1, 1]"] ;
8358 -> 8368 ;
8369 [label="gini = 0.0\nsamples = 1\nvalue = [1, 0]"] ;
8368 -> 8369 ;
8370 [label="gini = 0.0\nsamples = 1\nvalue = [0, 1]"] ;
8368 -> 8370 ;
8371 [label="has_job_experience <= 0.5\ngini = 0.444\nsamples = 3\nvalue = [1, 2]"] ;
8357 -> 8371 ;
8372 [label="gini = 0.0\nsamples = 2\nvalue = [0, 2]"] ;
8371 -> 8372 ;
8373 [label="gini = 0.0\nsamples = 1\nvalue = [1, 0]"] ;
8371 -> 8373 ;
8374 [label="hourly_wages <= 9.935\ngini = 0.488\nsamples = 19\nvalue = [11, 8]"] ;
8356 -> 8374 ;
8375 [label="gini = 0.0\nsamples = 2\nvalue = [0, 2]"] ;
8374 -> 8375 ;
8376 [label="hourly_wages <= 52.676\ngini = 0.457\nsamples = 17\nvalue = [11, 6]"] ;
8374 -> 8376 ;
8377 [label="hourly_wages <= 45.751\ngini = 0.49\nsamples = 14\nvalue = [8, 6]"] ;
8376 -> 8377 ;
8378 [label="no_of_employees <= 3716.5\ngini = 0.444\nsamples = 12\nvalue = [8, 4]"] ;
8377 -> 8378 ;
8379 [label="gini = 0.0\nsamples = 2\nvalue = [0, 2]"] ;
8378 -> 8379 ;
8380 [label="has_job_experience <= 0.5\ngini = 0.32\nsamples = 10\nvalue = [8, 2]"] ;
8378 -> 8380 ;
8381 [label="(...)"] ;
8380 -> 8381 ;
8386 [label="(...)"] ;
8380 -> 8386 ;
8387 [label="gini = 0.0\nsamples = 2\nvalue = [0, 2]"] ;
8377 -> 8387 ;
8388 [label="gini = 0.0\nsamples = 3\nvalue = [3, 0]"] ;
8376 -> 8388 ;
8389 [label="no_of_employees <= 424.0\ngini = 0.463\nsamples = 316\nvalue = [201, 115]"] ;
8355 -> 8389 ;
8390 [label="yrs_since_estab <= 114.0\ngini = 0.334\nsamples = 33\nvalue = [26, 7]"] ;
8389 -> 8390 ;
8391 [label="yrs_since_estab <= 20.0\ngini = 0.271\nsamples = 31\nvalue = [26, 5]"] ;
8390 -> 8391 ;
8392 [label="hourly_wages <= 13.02\ngini = 0.486\nsamples = 12\nvalue = [7, 5]"] ;
8391 -> 8392 ;
8393 [label="gini = 0.0\nsamples = 4\nvalue = [4, 0]"] ;
8392 -> 8393 ;
8394 [label="no_of_employees <= 366.5\ngini = 0.469\nsamples = 8\nvalue = [3, 5]"] ;
8392 -> 8394 ;
8395 [label="yrs_since_estab <= 12.5\ngini = 0.408\nsamples = 7\nvalue = [2, 5]"] ;
8394 -> 8395 ;
8396 [label="(...)"] ;
8395 -> 8396 ;
8397 [label="(...)"] ;
8395 -> 8397 ;
8400 [label="gini = 0.0\nsamples = 1\nvalue = [1, 0]"] ;
8394 -> 8400 ;
8401 [label="gini = 0.0\nsamples = 19\nvalue = [19, 0]"] ;
8391 -> 8401 ;
8402 [label="gini = 0.0\nsamples = 2\nvalue = [0, 2]"] ;
8390 -> 8402 ;
8403 [label="hourly_wages <= 492.601\ngini = 0.472\nsamples = 283\nvalue = [175, 108]"] ;
8389 -> 8403 ;
8404 [label="region_of_employment_Northeast <= 0.5\ngini = 0.47\nsamples = 281\nvalue = [175, 106]"] ;
8403 -> 8404 ;
8405 [label="no_of_employees <= 491.5\ngini = 0.482\nsamples = 219\nvalue = [130, 89]"] ;
8404 -> 8405 ;
8406 [label="gini = 0.0\nsamples = 4\nvalue = [0, 4]"] ;
8405 -> 8406 ;
8407 [label="yrs_since_estab <= 174.0\ngini = 0.478\nsamples = 215\nvalue = [130, 85]"] ;
8405 -> 8407 ;
8408 [label="yrs_since_estab <= 165.5\ngini = 0.481\nsamples = 211\nvalue = [126, 85]"] ;
8407 -> 8408 ;
8409 [label="(...)"] ;
8408 -> 8409 ;
8548 [label="(...)"] ;
8408 -> 8548 ;
8549 [label="gini = 0.0\nsamples = 4\nvalue = [4, 0]"] ;
8407 -> 8549 ;
8550 [label="hourly_wages <= 2.677\ngini = 0.398\nsamples = 62\nvalue = [45, 17]"] ;
8404 -> 8550 ;
8551 [label="gini = 0.0\nsamples = 2\nvalue = [0, 2]"] ;
8550 -> 8551 ;
8552 [label="yrs_since_estab <= 24.5\ngini = 0.375\nsamples = 60\nvalue = [45, 15]"] ;
8550 -> 8552 ;
8553 [label="hourly_wages <= 15.778\ngini = 0.483\nsamples = 27\nvalue = [16, 11]"] ;
8552 -> 8553 ;
8554 [label="(...)"] ;
8553 -> 8554 ;
8555 [label="(...)"] ;
8553 -> 8555 ;
8566 [label="no_of_employees <= 88973.5\ngini = 0.213\nsamples = 33\nvalue = [29, 4]"] ;
8552 -> 8566 ;
8567 [label="(...)"] ;
8566 -> 8567 ;
8576 [label="(...)"] ;
8566 -> 8576 ;
8577 [label="gini = 0.0\nsamples = 2\nvalue = [0, 2]"] ;
8403 -> 8577 ;
8578 [label="region_of_employment_Midwest <= 0.5\ngini = 0.413\nsamples = 1870\nvalue = [1326, 544]"] ;
8050 -> 8578 ;
8579 [label="region_of_employment_South <= 0.5\ngini = 0.382\nsamples = 1375\nvalue = [1022, 353]"] ;
8578 -> 8579 ;
8580 [label="unit_of_wage_Hour <= 0.5\ngini = 0.326\nsamples = 867\nvalue = [689, 178]"] ;
8579 -> 8580 ;
8581 [label="full_time_position <= 0.5\ngini = 0.347\nsamples = 752\nvalue = [584, 168]"] ;
8580 -> 8581 ;
8582 [label="hourly_wages <= 17.901\ngini = 0.111\nsamples = 51\nvalue = [48, 3]"] ;
8581 -> 8582 ;
8583 [label="hourly_wages <= 13.313\ngini = 0.444\nsamples = 3\nvalue = [2, 1]"] ;
8582 -> 8583 ;
8584 [label="gini = 0.0\nsamples = 2\nvalue = [2, 0]"] ;
8583 -> 8584 ;
8585 [label="gini = 0.0\nsamples = 1\nvalue = [0, 1]"] ;
8583 -> 8585 ;
8586 [label="no_of_employees <= 5915.5\ngini = 0.08\nsamples = 48\nvalue = [46, 2]"] ;
8582 -> 8586 ;
8587 [label="no_of_employees <= 1484.5\ngini = 0.045\nsamples = 43\nvalue = [42, 1]"] ;
8586 -> 8587 ;
8588 [label="no_of_employees <= 1345.0\ngini = 0.142\nsamples = 13\nvalue = [12, 1]"] ;
8587 -> 8588 ;
8589 [label="gini = 0.0\nsamples = 12\nvalue = [12, 0]"] ;
8588 -> 8589 ;
8590 [label="gini = 0.0\nsamples = 1\nvalue = [0, 1]"] ;
8588 -> 8590 ;
8591 [label="gini = 0.0\nsamples = 30\nvalue = [30, 0]"] ;
8587 -> 8591 ;
8592 [label="no_of_employees <= 6417.0\ngini = 0.32\nsamples = 5\nvalue = [4, 1]"] ;
8586 -> 8592 ;
8593 [label="gini = 0.0\nsamples = 1\nvalue = [0, 1]"] ;
8592 -> 8593 ;
8594 [label="gini = 0.0\nsamples = 4\nvalue = [4, 0]"] ;
8592 -> 8594 ;
8595 [label="hourly_wages <= 69.355\ngini = 0.36\nsamples = 701\nvalue = [536, 165]"] ;
8581 -> 8595 ;
8596 [label="hourly_wages <= 60.973\ngini = 0.34\nsamples = 622\nvalue = [487, 135]"] ;
8595 -> 8596 ;
8597 [label="hourly_wages <= 55.971\ngini = 0.352\nsamples = 579\nvalue = [447, 132]"] ;
8596 -> 8597 ;
8598 [label="hourly_wages <= 48.108\ngini = 0.334\nsamples = 552\nvalue = [435, 117]"] ;
8597 -> 8598 ;
8599 [label="hourly_wages <= 24.722\ngini = 0.354\nsamples = 474\nvalue = [365, 109]"] ;
8598 -> 8599 ;
8600 [label="(...)"] ;
8599 -> 8600 ;
8693 [label="(...)"] ;
8599 -> 8693 ;
8838 [label="yrs_since_estab <= 4.5\ngini = 0.184\nsamples = 78\nvalue = [70, 8]"] ;
8598 -> 8838 ;
8839 [label="(...)"] ;
8838 -> 8839 ;
8842 [label="(...)"] ;
8838 -> 8842 ;
8861 [label="yrs_since_estab <= 53.5\ngini = 0.494\nsamples = 27\nvalue = [12, 15]"] ;
8597 -> 8861 ;
8862 [label="region_of_employment_Northeast <= 0.5\ngini = 0.455\nsamples = 20\nvalue = [7, 13]"] ;
8861 -> 8862 ;
8863 [label="(...)"] ;
8862 -> 8863 ;
8874 [label="(...)"] ;
8862 -> 8874 ;
8877 [label="yrs_since_estab <= 95.5\ngini = 0.408\nsamples = 7\nvalue = [5, 2]"] ;
8861 -> 8877 ;
8878 [label="(...)"] ;
8877 -> 8878 ;
8879 [label="(...)"] ;
8877 -> 8879 ;
8882 [label="hourly_wages <= 66.944\ngini = 0.13\nsamples = 43\nvalue = [40, 3]"] ;
8596 -> 8882 ;
8883 [label="gini = 0.0\nsamples = 28\nvalue = [28, 0]"] ;
8882 -> 8883 ;
8884 [label="hourly_wages <= 67.26\ngini = 0.32\nsamples = 15\nvalue = [12, 3]"] ;
8882 -> 8884 ;
8885 [label="no_of_employees <= 2337.5\ngini = 0.444\nsamples = 3\nvalue = [1, 2]"] ;
8884 -> 8885 ;
8886 [label="(...)"] ;
8885 -> 8886 ;
8887 [label="(...)"] ;
8885 -> 8887 ;
8890 [label="region_of_employment_Northeast <= 0.5\ngini = 0.153\nsamples = 12\nvalue = [11, 1]"] ;
8884 -> 8890 ;
8891 [label="(...)"] ;
8890 -> 8891 ;
8894 [label="(...)"] ;
8890 -> 8894 ;
8895 [label="hourly_wages <= 71.157\ngini = 0.471\nsamples = 79\nvalue = [49, 30]"] ;
8595 -> 8895 ;
8896 [label="region_of_employment_Northeast <= 0.5\ngini = 0.375\nsamples = 8\nvalue = [2, 6]"] ;
8895 -> 8896 ;
8897 [label="yrs_since_estab <= 17.5\ngini = 0.444\nsamples = 3\nvalue = [2, 1]"] ;
8896 -> 8897 ;
8898 [label="gini = 0.0\nsamples = 1\nvalue = [0, 1]"] ;
8897 -> 8898 ;
8899 [label="gini = 0.0\nsamples = 2\nvalue = [2, 0]"] ;
8897 -> 8899 ;
8900 [label="gini = 0.0\nsamples = 5\nvalue = [0, 5]"] ;
8896 -> 8900 ;
8901 [label="has_job_experience <= 0.5\ngini = 0.448\nsamples = 71\nvalue = [47, 24]"] ;
8895 -> 8901 ;
8902 [label="hourly_wages <= 85.646\ngini = 0.293\nsamples = 28\nvalue = [23, 5]"] ;
8901 -> 8902 ;
8903 [label="gini = 0.0\nsamples = 9\nvalue = [9, 0]"] ;
8902 -> 8903 ;
8904 [label="hourly_wages <= 92.742\ngini = 0.388\nsamples = 19\nvalue = [14, 5]"] ;
8902 -> 8904 ;
8905 [label="(...)"] ;
8904 -> 8905 ;
8910 [label="(...)"] ;
8904 -> 8910 ;
8917 [label="requires_job_training <= 0.5\ngini = 0.493\nsamples = 43\nvalue = [24, 19]"] ;
8901 -> 8917 ;
8918 [label="hourly_wages <= 76.924\ngini = 0.485\nsamples = 41\nvalue = [24, 17]"] ;
8917 -> 8918 ;
8919 [label="(...)"] ;
8918 -> 8919 ;
8926 [label="(...)"] ;
8918 -> 8926 ;
8945 [label="gini = 0.0\nsamples = 2\nvalue = [0, 2]"] ;
8917 -> 8945 ;
8946 [label="hourly_wages <= 44.087\ngini = 0.159\nsamples = 115\nvalue = [105, 10]"] ;
8580 -> 8946 ;
8947 [label="no_of_employees <= 1368.0\ngini = 0.48\nsamples = 5\nvalue = [3, 2]"] ;
8946 -> 8947 ;
8948 [label="gini = 0.0\nsamples = 2\nvalue = [0, 2]"] ;
8947 -> 8948 ;
8949 [label="gini = 0.0\nsamples = 3\nvalue = [3, 0]"] ;
8947 -> 8949 ;
8950 [label="region_of_employment_Northeast <= 0.5\ngini = 0.135\nsamples = 110\nvalue = [102, 8]"] ;
8946 -> 8950 ;
8951 [label="no_of_employees <= 49138.5\ngini = 0.24\nsamples = 43\nvalue = [37, 6]"] ;
8950 -> 8951 ;
8952 [label="no_of_employees <= 528.0\ngini = 0.21\nsamples = 42\nvalue = [37, 5]"] ;
8951 -> 8952 ;
8953 [label="no_of_employees <= 346.0\ngini = 0.48\nsamples = 5\nvalue = [3, 2]"] ;
8952 -> 8953 ;
8954 [label="gini = 0.0\nsamples = 3\nvalue = [3, 0]"] ;
8953 -> 8954 ;
8955 [label="gini = 0.0\nsamples = 2\nvalue = [0, 2]"] ;
8953 -> 8955 ;
8956 [label="no_of_employees <= 1805.0\ngini = 0.149\nsamples = 37\nvalue = [34, 3]"] ;
8952 -> 8956 ;
8957 [label="gini = 0.0\nsamples = 13\nvalue = [13, 0]"] ;
8956 -> 8957 ;
8958 [label="no_of_employees <= 1923.5\ngini = 0.219\nsamples = 24\nvalue = [21, 3]"] ;
8956 -> 8958 ;
8959 [label="(...)"] ;
8958 -> 8959 ;
8960 [label="(...)"] ;
8958 -> 8960 ;
8969 [label="gini = 0.0\nsamples = 1\nvalue = [0, 1]"] ;
8951 -> 8969 ;
8970 [label="hourly_wages <= 727.825\ngini = 0.058\nsamples = 67\nvalue = [65, 2]"] ;
8950 -> 8970 ;
8971 [label="yrs_since_estab <= 15.5\ngini = 0.034\nsamples = 58\nvalue = [57, 1]"] ;
8970 -> 8971 ;
8972 [label="yrs_since_estab <= 14.0\ngini = 0.091\nsamples = 21\nvalue = [20, 1]"] ;
8971 -> 8972 ;
8973 [label="gini = 0.0\nsamples = 16\nvalue = [16, 0]"] ;
8972 -> 8973 ;
8974 [label="hourly_wages <= 284.885\ngini = 0.32\nsamples = 5\nvalue = [4, 1]"] ;
8972 -> 8974 ;
8975 [label="(...)"] ;
8974 -> 8975 ;
8978 [label="(...)"] ;
8974 -> 8978 ;
8979 [label="gini = 0.0\nsamples = 37\nvalue = [37, 0]"] ;
8971 -> 8979 ;
8980 [label="hourly_wages <= 772.65\ngini = 0.198\nsamples = 9\nvalue = [8, 1]"] ;
8970 -> 8980 ;
8981 [label="gini = 0.0\nsamples = 1\nvalue = [0, 1]"] ;
8980 -> 8981 ;
8982 [label="gini = 0.0\nsamples = 8\nvalue = [8, 0]"] ;
8980 -> 8982 ;
8983 [label="yrs_since_estab <= 2.5\ngini = 0.452\nsamples = 508\nvalue = [333, 175]"] ;
8579 -> 8983 ;
8984 [label="gini = 0.0\nsamples = 5\nvalue = [5, 0]"] ;
8983 -> 8984 ;
8985 [label="no_of_employees <= 4670.0\ngini = 0.454\nsamples = 503\nvalue = [328, 175]"] ;
8983 -> 8985 ;
8986 [label="yrs_since_estab <= 11.5\ngini = 0.444\nsamples = 444\nvalue = [296, 148]"] ;
8985 -> 8986 ;
8987 [label="full_time_position <= 0.5\ngini = 0.489\nsamples = 106\nvalue = [61, 45]"] ;
8986 -> 8987 ;
8988 [label="hourly_wages <= 230.788\ngini = 0.245\nsamples = 7\nvalue = [1, 6]"] ;
8987 -> 8988 ;
8989 [label="gini = 0.0\nsamples = 6\nvalue = [0, 6]"] ;
8988 -> 8989 ;
8990 [label="gini = 0.0\nsamples = 1\nvalue = [1, 0]"] ;
8988 -> 8990 ;
8991 [label="hourly_wages <= 30.626\ngini = 0.478\nsamples = 99\nvalue = [60, 39]"] ;
8987 -> 8991 ;
8992 [label="hourly_wages <= 8.629\ngini = 0.494\nsamples = 38\nvalue = [17, 21]"] ;
8991 -> 8992 ;
8993 [label="gini = 0.0\nsamples = 5\nvalue = [5, 0]"] ;
8992 -> 8993 ;
8994 [label="hourly_wages <= 27.462\ngini = 0.463\nsamples = 33\nvalue = [12, 21]"] ;
8992 -> 8994 ;
8995 [label="(...)"] ;
8994 -> 8995 ;
9014 [label="(...)"] ;
8994 -> 9014 ;
9015 [label="hourly_wages <= 649.4\ngini = 0.416\nsamples = 61\nvalue = [43, 18]"] ;
8991 -> 9015 ;
9016 [label="unit_of_wage_Hour <= 0.5\ngini = 0.395\nsamples = 59\nvalue = [43, 16]"] ;
9015 -> 9016 ;
9017 [label="(...)"] ;
9016 -> 9017 ;
9046 [label="(...)"] ;
9016 -> 9046 ;
9047 [label="gini = 0.0\nsamples = 2\nvalue = [0, 2]"] ;
9015 -> 9047 ;
9048 [label="yrs_since_estab <= 90.5\ngini = 0.424\nsamples = 338\nvalue = [235, 103]"] ;
8986 -> 9048 ;
9049 [label="no_of_employees <= 1450.0\ngini = 0.4\nsamples = 282\nvalue = [204, 78]"] ;
9048 -> 9049 ;
9050 [label="unit_of_wage_Hour <= 0.5\ngini = 0.466\nsamples = 103\nvalue = [65, 38]"] ;
9049 -> 9050 ;
9051 [label="hourly_wages <= 56.353\ngini = 0.484\nsamples = 90\nvalue = [53, 37]"] ;
9050 -> 9051 ;
9052 [label="(...)"] ;
9051 -> 9052 ;
9101 [label="(...)"] ;
9051 -> 9101 ;
9108 [label="no_of_employees <= 636.5\ngini = 0.142\nsamples = 13\nvalue = [12, 1]"] ;
9050 -> 9108 ;
9109 [label="(...)"] ;
9108 -> 9109 ;
9110 [label="(...)"] ;
9108 -> 9110 ;
9113 [label="hourly_wages <= 763.452\ngini = 0.347\nsamples = 179\nvalue = [139, 40]"] ;
9049 -> 9113 ;
9114 [label="no_of_employees <= 1799.5\ngini = 0.33\nsamples = 173\nvalue = [137, 36]"] ;
9113 -> 9114 ;
9115 [label="(...)"] ;
9114 -> 9115 ;
9124 [label="(...)"] ;
9114 -> 9124 ;
9209 [label="no_of_employees <= 2407.0\ngini = 0.444\nsamples = 6\nvalue = [2, 4]"] ;
9113 -> 9209 ;
9210 [label="(...)"] ;
9209 -> 9210 ;
9215 [label="(...)"] ;
9209 -> 9215 ;
9216 [label="hourly_wages <= 6.326\ngini = 0.494\nsamples = 56\nvalue = [31, 25]"] ;
9048 -> 9216 ;
9217 [label="gini = 0.0\nsamples = 2\nvalue = [0, 2]"] ;
9216 -> 9217 ;
9218 [label="hourly_wages <= 17.887\ngini = 0.489\nsamples = 54\nvalue = [31, 23]"] ;
9216 -> 9218 ;
9219 [label="no_of_employees <= 347.0\ngini = 0.219\nsamples = 8\nvalue = [7, 1]"] ;
9218 -> 9219 ;
9220 [label="(...)"] ;
9219 -> 9220 ;
9221 [label="(...)"] ;
9219 -> 9221 ;
9222 [label="hourly_wages <= 27.938\ngini = 0.499\nsamples = 46\nvalue = [24, 22]"] ;
9218 -> 9222 ;
9223 [label="(...)"] ;
9222 -> 9223 ;
9230 [label="(...)"] ;
9222 -> 9230 ;
9259 [label="no_of_employees <= 4944.0\ngini = 0.496\nsamples = 59\nvalue = [32, 27]"] ;
8985 -> 9259 ;
9260 [label="gini = 0.0\nsamples = 4\nvalue = [0, 4]"] ;
9259 -> 9260 ;
9261 [label="hourly_wages <= 37.692\ngini = 0.487\nsamples = 55\nvalue = [32, 23]"] ;
9259 -> 9261 ;
9262 [label="no_of_employees <= 108155.0\ngini = 0.208\nsamples = 17\nvalue = [15, 2]"] ;
9261 -> 9262 ;
9263 [label="hourly_wages <= 6.892\ngini = 0.117\nsamples = 16\nvalue = [15, 1]"] ;
9262 -> 9263 ;
9264 [label="no_of_employees <= 22260.0\ngini = 0.444\nsamples = 3\nvalue = [2, 1]"] ;
9263 -> 9264 ;
9265 [label="(...)"] ;
9264 -> 9265 ;
9266 [label="(...)"] ;
9264 -> 9266 ;
9267 [label="gini = 0.0\nsamples = 13\nvalue = [13, 0]"] ;
9263 -> 9267 ;
9268 [label="gini = 0.0\nsamples = 1\nvalue = [0, 1]"] ;
9262 -> 9268 ;
9269 [label="full_time_position <= 0.5\ngini = 0.494\nsamples = 38\nvalue = [17, 21]"] ;
9261 -> 9269 ;
9270 [label="gini = 0.0\nsamples = 4\nvalue = [0, 4]"] ;
9269 -> 9270 ;
9271 [label="yrs_since_estab <= 69.0\ngini = 0.5\nsamples = 34\nvalue = [17, 17]"] ;
9269 -> 9271 ;
9272 [label="hourly_wages <= 52.027\ngini = 0.491\nsamples = 30\nvalue = [13, 17]"] ;
9271 -> 9272 ;
9273 [label="(...)"] ;
9272 -> 9273 ;
9280 [label="(...)"] ;
9272 -> 9280 ;
9295 [label="gini = 0.0\nsamples = 4\nvalue = [4, 0]"] ;
9271 -> 9295 ;
9296 [label="no_of_employees <= 21590.0\ngini = 0.474\nsamples = 495\nvalue = [304, 191]"] ;
8578 -> 9296 ;
9297 [label="no_of_employees <= 17287.5\ngini = 0.476\nsamples = 488\nvalue = [297, 191]"] ;
9296 -> 9297 ;
9298 [label="hourly_wages <= 710.901\ngini = 0.475\nsamples = 485\nvalue = [297, 188]"] ;
9297 -> 9298 ;
9299 [label="no_of_employees <= 1894.0\ngini = 0.477\nsamples = 479\nvalue = [291, 188]"] ;
9298 -> 9299 ;
9300 [label="hourly_wages <= 76.466\ngini = 0.455\nsamples = 246\nvalue = [160, 86]"] ;
9299 -> 9300 ;
9301 [label="yrs_since_estab <= 7.5\ngini = 0.44\nsamples = 214\nvalue = [144, 70]"] ;
9300 -> 9301 ;
9302 [label="hourly_wages <= 9.916\ngini = 0.227\nsamples = 23\nvalue = [20, 3]"] ;
9301 -> 9302 ;
9303 [label="gini = 0.0\nsamples = 1\nvalue = [0, 1]"] ;
9302 -> 9303 ;
9304 [label="yrs_since_estab <= 1.5\ngini = 0.165\nsamples = 22\nvalue = [20, 2]"] ;
9302 -> 9304 ;
9305 [label="(...)"] ;
9304 -> 9305 ;
9308 [label="(...)"] ;
9304 -> 9308 ;
9313 [label="no_of_employees <= 1476.0\ngini = 0.455\nsamples = 191\nvalue = [124, 67]"] ;
9301 -> 9313 ;
9314 [label="yrs_since_estab <= 38.0\ngini = 0.472\nsamples = 152\nvalue = [94, 58]"] ;
9313 -> 9314 ;
9315 [label="(...)"] ;
9314 -> 9315 ;
9386 [label="(...)"] ;
9314 -> 9386 ;
9411 [label="hourly_wages <= 52.587\ngini = 0.355\nsamples = 39\nvalue = [30, 9]"] ;
9313 -> 9411 ;
9412 [label="(...)"] ;
9411 -> 9412 ;
9435 [label="(...)"] ;
9411 -> 9435 ;
9442 [label="no_of_employees <= 588.5\ngini = 0.5\nsamples = 32\nvalue = [16, 16]"] ;
9300 -> 9442 ;
9443 [label="no_of_employees <= 466.0\ngini = 0.444\nsamples = 15\nvalue = [10, 5]"] ;
9442 -> 9443 ;
9444 [label="no_of_employees <= 212.0\ngini = 0.494\nsamples = 9\nvalue = [4, 5]"] ;
9443 -> 9444 ;
9445 [label="(...)"] ;
9444 -> 9445 ;
9450 [label="(...)"] ;
9444 -> 9450 ;
9451 [label="gini = 0.0\nsamples = 6\nvalue = [6, 0]"] ;
9443 -> 9451 ;
9452 [label="unit_of_wage_Hour <= 0.5\ngini = 0.457\nsamples = 17\nvalue = [6, 11]"] ;
9442 -> 9452 ;
9453 [label="yrs_since_estab <= 95.5\ngini = 0.391\nsamples = 15\nvalue = [4, 11]"] ;
9452 -> 9453 ;
9454 [label="(...)"] ;
9453 -> 9454 ;
9465 [label="(...)"] ;
9453 -> 9465 ;
9466 [label="gini = 0.0\nsamples = 2\nvalue = [2, 0]"] ;
9452 -> 9466 ;
9467 [label="no_of_employees <= 1964.5\ngini = 0.492\nsamples = 233\nvalue = [131, 102]"] ;
9299 -> 9467 ;
9468 [label="gini = 0.0\nsamples = 6\nvalue = [0, 6]"] ;
9467 -> 9468 ;
9469 [label="no_of_employees <= 4781.0\ngini = 0.488\nsamples = 227\nvalue = [131, 96]"] ;
9467 -> 9469 ;
9470 [label="no_of_employees <= 4563.0\ngini = 0.495\nsamples = 196\nvalue = [108, 88]"] ;
9469 -> 9470 ;
9471 [label="yrs_since_estab <= 4.5\ngini = 0.49\nsamples = 184\nvalue = [105, 79]"] ;
9470 -> 9471 ;
9472 [label="(...)"] ;
9471 -> 9472 ;
9477 [label="(...)"] ;
9471 -> 9477 ;
9600 [label="hourly_wages <= 7.609\ngini = 0.375\nsamples = 12\nvalue = [3, 9]"] ;
9470 -> 9600 ;
9601 [label="(...)"] ;
9600 -> 9601 ;
9602 [label="(...)"] ;
9600 -> 9602 ;
9609 [label="yrs_since_estab <= 7.5\ngini = 0.383\nsamples = 31\nvalue = [23, 8]"] ;
9469 -> 9609 ;
9610 [label="gini = 0.0\nsamples = 2\nvalue = [0, 2]"] ;
9609 -> 9610 ;
9611 [label="full_time_position <= 0.5\ngini = 0.328\nsamples = 29\nvalue = [23, 6]"] ;
9609 -> 9611 ;
9612 [label="(...)"] ;
9611 -> 9612 ;
9615 [label="(...)"] ;
9611 -> 9615 ;
9624 [label="gini = 0.0\nsamples = 6\nvalue = [6, 0]"] ;
9298 -> 9624 ;
9625 [label="gini = 0.0\nsamples = 3\nvalue = [0, 3]"] ;
9297 -> 9625 ;
9626 [label="gini = 0.0\nsamples = 7\nvalue = [7, 0]"] ;
9296 -> 9626 ;
}